307 64
152 0.24784599 -0.6586183 1.214743 -1.5177176 -1.0430512 -0.94075507 0.20650549 0.5839338 0.23240249 1.0795691 0.40841192 -0.18029644 -0.7056709 1.3632087 0.89068586 1.829216 0.16486691 -0.3602622 -1.2371471 -0.34655586 -0.66055095 1.4339656 1.7912949 -0.25657937 -2.9753785 -1.055479 -1.6414112 -0.06275781 -1.758199 2.7487817 -0.70402086 0.2147309 -0.94861287 -0.9508551 0.3728052 -1.3228167 0.38004157 0.2339042 -1.2232323 0.119761914 1.7795773 2.9175684 1.1861978 2.2174468 -2.0592399 -0.2748583 -0.09414048 -0.0868715 3.6943905 1.0506912 0.11787489 -1.992327 -0.520202 0.22277324 -0.12948026 0.7463909 1.0265113 0.26630312 -1.1281466 -2.1534503 1.4122804 -1.5234718 1.5448151 0.50419044
180 1.4279232 0.403331 1.387098 -1.1060451 -0.25558615 1.1499695 -0.059075102 -0.0554697 0.24665734 1.5461278 1.5091527 -1.2762759 -0.51779324 2.4833014 -1.01335 0.19953664 -0.7819149 -1.8465321 -2.1064816 0.61108345 0.9394448 0.9632499 0.30619612 -0.6873128 -1.044292 0.660443 -0.3437246 0.1814857 -0.34221485 3.8347995 0.038750276 -0.9280696 -0.4038829 0.24751027 0.23832813 0.315373 -0.79982936 0.7507598 -2.3651202 0.94207495 0.99790335 2.5894456 1.7440728 1.4688038 -2.8575754 -0.4508297 -0.19111823 -1.1993848 3.0320346 -1.0044258 -1.0484247 0.51503 -1.579507 -0.5839132 1.1415265 -0.40418103 -0.34085274 -0.45366415 -2.3005748 0.61099416 0.76407135 -1.1033605 -0.4436872 0.40704918
156 -0.24035019 -0.5155207 0.5060893 -2.0832355 -0.8349139 0.17012781 1.9599686 -0.42614305 1.4498513 0.26547706 1.9363555 1.0417211 0.063655354 2.5114267 -0.33900803 1.8880249 -0.058784857 -1.6653379 -1.6894815 -1.2967796 1.1976848 1.4092194 0.5273494 -0.31363603 -1.6693918 0.3179681 -1.427143 0.15638795 -1.9764525 2.5313253 -0.05050197 -1.841529 -2.029618 -1.1398833 -0.3050573 -0.43874872 1.0952713 0.24399552 -0.67960125 1.2190255 1.641789 1.5588199 0.70411164 0.55311984 -0.32516098 1.2327102 -0.22229673 0.27478212 1.2957613 -0.7493219 -1.7722356 -0.11325942 -0.5365002 -1.5196974 0.66587955 -1.1585041 0.38558522 -2.0574996 -2.468106 -0.7905482 1.723076 0.30111682 1.3581802 0.35428312
50 1.019662 -0.13986073 -0.68608874 -1.9104493 -0.9837505 1.2975026 -0.50597155 0.7624848 -0.40165052 0.64669675 -0.29325953 -0.13677071 -0.48944572 0.8682492 0.08340679 1.1285309 -1.4336147 -1.7235591 -1.5096678 1.0559266 0.6522992 1.758476 2.220867 -0.9143813 -2.1350067 -0.5694455 0.9703979 2.2169466 -0.2820851 1.8899307 0.5002761 -2.0647182 -2.5092118 -1.3443556 0.64943916 0.04053366 2.478207 1.7865033 -0.6075624 1.1747446 -0.4109209 1.4011859 0.25891143 0.6028663 -1.6446867 -0.01520983 -0.6734096 -1.6781231 2.4408212 0.4777707 -0.8336793 0.28596365 2.4683485 -0.943108 -0.24405962 0.2321745 -0.64839554 0.4585839 -0.972533 0.35439765 1.4221877 -0.35108164 1.8380734 0.13857493
105 1.6615537 -0.7298008 0.6715349 -2.007624 -0.6666254 0.11329486 0.6358176 0.79535294 0.8745294 2.0225103 -0.16387218 0.9726623 1.9439967 1.607541 0.10106846 2.344489 0.35007754 -1.1916122 -2.7491438 -0.6214321 0.020933373 2.2079248 -0.7241914 -0.24886927 -0.94508284 -0.3477726 -0.6602816 2.2621386 -1.5310385 2.547426 0.085764386 0.21469842 -0.817247 -0.083381526 0.13202223 -1.561243 1.487946 0.24195857 1.1768011 1.1908654 -0.31735787 2.3414829 0.40875936 0.08123248 -2.451219 -0.06026619 -1.2888588 -0.37903202 1.8245038 -0.82526684 -0.14207569 -0.7807926 -1.4746296 -0.2061528 -0.26720896 0.0102628805 -0.64660263 -1.0627134 -2.1284416 -0.01796287 0.7547085 -2.0829625 -0.3078024 -0.23293233
306 0.44809625 0.6605408 0.08977365 -1.9328907 1.9093485 0.32856566 -0.29272777 0.07223316 0.08121079 1.0914128 2.0247426 0.11432094 -0.6210261 1.378565 -0.5241634 2.8529706 0.30121547 -2.1273708 0.046154164 -0.34010553 0.06376237 1.6998503 0.9261628 0.7855646 -0.60597587 0.3752724 -0.35941765 -0.53628457 -2.152444 3.3344314 -0.050220598 0.8971864 -2.1978278 -1.8137554 0.7041249 0.313883 0.5739887 0.84653056 -0.6150679 0.8666457 0.42462507 2.4227774 -0.25048718 0.4503806 -2.677153 0.6611398 -2.6054904 -0.48369145 1.5571827 -0.47715732 -1.4789492 -0.13957444 -0.44787273 -0.62478423 0.889757 0.98220384 0.12796699 -0.38981614 -0.9487817 -0.059005044 0.7335073 -1.519965 1.563549 -1.0743169
49 1.7019205 0.07887813 0.6316685 -0.799618 0.2302157 0.0044097058 -0.6534768 -0.6065342 -0.2564068 -1.003314 2.7435822 1.9280171 -0.42260307 1.0339582 0.7356106 0.5621907 -1.1131523 -1.6087717 -2.566887 -0.8232835 2.065832 3.591302 0.8707412 -0.19878484 -1.3830404 -0.49586338 0.17688248 0.47836086 -1.7694203 2.1008525 0.70801616 -0.80257034 -0.84815747 -0.38455075 1.1394501 -1.6055293 0.656562 0.22864042 -0.8441782 0.7620795 0.55629873 1.6479485 1.1248761 1.111474 -1.842354 -0.5301147 -1.3304433 -0.56670564 1.0653782 -0.54764825 -0.7749332 -1.007967 -0.7380703 -1.0001308 0.05040781 0.8043149 1.6760219 -0.22001986 0.072564304 -0.4345682 0.95609975 -0.90632045 -0.6107279 0.18819605
62 -0.9892753 0.87894595 0.87910396 0.16004236 -0.43321574 0.19044292 0.21618281 -0.52529085 -1.1783491 1.0142162 0.996434 0.98339623 0.48660523 1.0807502 2.3213177 1.5325412 -1.8889693 -0.58199847 -1.3804903 -0.31709033 1.4506956 0.7252909 0.09281829 -0.5913109 -2.0900588 -1.0640137 -1.1860815 0.34772512 -2.236264 2.1369793 0.024437042 -0.9550206 -1.8792228 -1.4578873 -0.3778084 -0.017045557 0.5108273 2.2960942 -1.7788937 0.0029778692 -1.43589 1.6785275 -0.39336517 0.84029037 -1.9360203 0.8808145 0.28446025 -0.5759441 1.8048744 -2.9501173 -1.6433439 0.084246315 -1.9084944 0.40869758 -0.3695009 -0.9023093 -0.8536005 -0.5738367 -0.88171846 -0.7057034 -0.90894157 -2.0808308 1.0757498 -0.5836962
226 1.2187414 0.08231295 0.06588017 -1.2129606 -1.4562066 0.8571163 1.1453646 0.75949115 -0.98576015 0.6126723 0.58654475 -0.5721885 0.14421675 1.3810216 0.79936105 1.2487414 -0.7588869 -0.68653685 -1.4845914 0.09424877 0.99244714 1.9234896 0.37075293 -0.90234643 -1.1802207 0.5511462 0.24287762 0.74555945 -1.5204698 0.87213886 0.57655925 2.0898356 -1.0977757 -2.2477138 -0.042574283 0.084081694 1.1811006 1.1216277 -1.1052946 0.49853146 2.053136 0.37032923 1.742873 0.6328322 -2.3283195 -0.95465225 -1.8335838 2.3995636 2.4087036 -1.5979785 -1.3613919 0.5737205 -0.1065299 -0.7415675 0.071275294 0.6248627 0.08638823 -1.2518436 -2.156009 -0.87335426 0.266217 -0.15747057 -0.20103069 0.12690772
78 0.42544508 1.2543561 0.49942744 -1.9562418 -0.87510276 -0.34999934 -0.3946824 -0.39786738 -0.7086594 1.8481432 1.5999491 0.42377594 1.2185966 -0.97521114 -1.2559674 0.25925797 0.062426288 0.0076531023 -0.85000587 1.2582479 1.063025 0.091758154 -0.57170194 -0.5329919 -2.065972 0.612861 0.63831353 0.7096788 -1.7520652 1.5435234 -1.442535 0.96790797 -1.640989 -1.3998933 0.32449543 -2.7766013 -0.10254797 0.30799642 -0.66347456 0.8318597 0.2384037 2.1065376 0.668267 0.14360917 -0.86006016 -0.0012783009 -0.38350978 -0.16494218 1.8740393 -1.4216949 0.2976325 0.09426108 1.0895275 -1.5336325 0.38551697 -0.0969558 1.0543407 0.7954928 -0.5424593 0.8901569 1.7647038 -1.1631641 0.95761824 -0.20133232
215 0.3026906 0.6987219 -0.1648184 -0.43212155 -0.28918535 0.012998281 0.2784894 -0.12597142 0.03527004 0.8566526 0.05927393 0.7196157 -0.04157202 -0.025799256 0.32600734 -0.2369011 -0.30305007 0.023445437 -0.013249915 1.0513488 0.20041826 0.53355706 0.44645655 -0.5095533 -0.028928248 -0.17937367 0.21857356 -0.04948214 -0.43764523 0.63854074 -0.800096 -0.23078877 -0.48297352 -0.7237374 -0.29734045 -0.32681474 0.22838998 0.12976602 0.3354837 0.3558424 0.48949564 0.40571865 0.23311588 -0.10657918 -0.6222979 -0.8277113 0.6394304 -0.37447286 0.17700258 -0.11841054 -0.53974193 0.06218706 0.3036421 -0.71211696 -0.18752365 -0.10301226 0.39912778 -0.14819184 -0.26743516 0.07810975 0.7078019 -0.8062041 0.08317195 -0.2058792
86 0.24247126 1.154755 0.29515192 -2.8031116 -0.65355563 0.5282481 -0.5336105 -1.4340297 -0.31205645 2.874057 0.70295334 0.8544892 0.12873761 -0.30660072 0.48896882 0.106357045 -0.71868235 0.5326134 -0.710208 0.64369684 0.47465032 0.23048398 -0.4210139 -0.9451866 -1.9443393 -1.405136 0.16519928 -0.17156838 -0.746659 1.5274974 -0.9078754 -0.26100248 -0.24880536 -1.1342065 0.37063327 -1.4441388 0.22162116 0.14574623 -1.0947065 1.1311393 0.905461 2.0148683 0.38139465 -0.42519265 -1.4601448 0.71391106 -1.7489545 0.56571096 0.59867525 -0.4988999 -0.29167816 -0.22357218 0.44493335 -1.8360022 0.43546745 1.0513387 0.6200374 1.3777003 -1.3579203 0.7915339 1.5242944 -1.3985752 -0.13980725 0.23408823
172 0.24689987 0.14952396 0.038816262 -0.49787116 -1.8301765 0.46335012 0.09281638 -1.2701358 1.0765183 0.04044861 0.63998467 0.9790524 0.03819987 0.94583774 0.4272821 1.6986142 -0.8367738 -1.3464067 0.0427837 0.15654247 -0.027706753 0.6694586 0.21799047 -0.16005488 -1.2383457 -0.76988393 -0.20214719 0.4105542 -0.13480286 2.5698519 -0.23568965 0.36840728 -0.9153566 0.5242651 1.8352048 -0.2431272 0.25246993 -0.15075783 -0.21494626 1.0114945 0.6252437 0.94878536 0.41592172 0.441537 -2.3274999 0.08522732 -0.7955431 -0.22400056 0.48932672 -0.6582598 -0.4125745 0.78079313 0.0821613 -0.66701186 0.38850316 0.48721182 0.052352276 -0.5913226 -0.9723284 -1.2462261 -0.13097732 -0.8688536 0.66556996 0.94695777
139 0.99994695 -0.24396302 0.14591223 -0.78626853 -0.7675017 0.5253874 -0.6503133 0.7478031 1.2189182 1.3130596 0.7726273 -0.21581237 0.7738131 0.44826657 0.23434311 1.1152158 -0.6058339 -0.9696822 -0.03526472 -0.48062617 0.42236862 1.4922813 0.7499221 0.23538654 -0.21207216 -0.62764925 -0.76397604 0.88835734 -1.8406043 1.9847287 -0.11335426 -1.1954604 -0.9502874 -1.2306701 0.13263495 0.10389906 -0.18226571 -0.062477868 -0.5094143 0.093585834 0.60571337 2.2031267 1.5387503 1.0084994 0.03976185 -0.033773024 -0.66152966 0.6406652 0.81531394 -0.48988646 -0.12697159 -0.3339247 -0.19211076 -0.3933324 1.6899475 -0.18270476 -0.13529053 -0.87965333 0.60817295 0.15099922 0.076640375 -1.4730918 0.36031628 0.98631835
204 0.79918844 0.8213681 -0.25461453 -1.6189258 -0.133417 -0.49952632 0.3604084 -0.3968511 0.58527714 -0.45576715 0.9450428 -0.7378889 -1.3320911 -0.1287738 -0.613285 0.85496086 -0.648367 -0.06990379 -0.6222556 0.79902685 -0.90219605 1.1264427 0.39689663 0.26103348 -2.0904534 -0.21081954 -0.35965666 0.9375611 -0.7080004 2.2197838 0.24679606 -1.9064437 -1.1661863 -0.9598666 -0.65579534 -1.234936 -0.46936336 -0.2887922 -0.0065413523 1.3179207 0.39199537 0.55702317 1.0589893 1.11996 -2.2463112 0.09687437 -0.15825999 0.9991048 1.7482407 -1.8597622 -0.88872975 -0.5697728 -1.0564045 -1.3939991 1.689339 0.6132858 -0.6730504 -0.69606376 -0.54546064 -1.2066498 -0.50254583 -0.3353226 1.589039 0.6363189
232 0.6716448 0.8954731 0.6020027 -1.8692342 -1.5885136 -1.2318286 -0.043665748 0.06281271 -0.008052436 0.6513114 2.2689862 0.0036035678 1.395867 0.5812276 -0.42998362 -0.39420795 -0.84959036 -0.63533163 0.6361902 0.49973097 1.3348993 0.1340433 -0.3331024 0.467147 -1.4884648 -0.75616384 0.8208186 0.6377414 -0.40448594 1.1134524 -0.6464425 0.5534207 -0.15924092 -1.2293825 0.82785463 -1.2965107 1.0467992 0.08570919 -0.15310417 0.27535087 0.5317566 1.9327695 0.7083903 1.1814569 -0.6391901 0.37929088 -1.093349 -0.29034582 1.3505522 -0.84147775 -1.0732907 -0.38050973 -0.46144277 -0.17492953 0.29430872 0.5552856 -1.0650904 -0.031736206 -0.18269198 0.83615077 1.8206377 -1.2860013 0.24994273 0.84850436
171 1.7302846 0.7050146 -0.89813817 -1.1009271 -0.6156805 0.22498465 0.12614723 0.41844973 1.4417101 0.11917701 1.099324 0.4194998 -0.7362879 0.8905347 0.93046683 0.97083867 0.1391938 -1.8329799 -1.2703534 0.5872853 0.8440403 1.2623289 -1.3952875 -1.3876485 -1.677864 0.17533693 -0.7357954 0.6273366 -1.0744052 1.0412579 -0.23571698 0.5762376 0.45843875 -0.93370867 0.6848176 1.0304321 -0.0141095165 0.36499473 -0.064719 2.221287 0.4600649 0.35032007 0.96717215 0.10915428 -0.6232566 0.18726943 -0.5029608 -0.21802537 1.5824308 0.105554536 0.5143135 -1.2453294 -1.0366385 -1.4524645 1.1904417 -0.5473135 0.7272234 -0.4354655 -0.38217312 -0.7760417 -0.20355928 -0.25224376 0.29465252 0.7188572
255 0.77793366 0.19820832 -0.15853536 -0.08496617 0.015418862 0.22077292 -0.21970998 -0.090530574 0.47132152 0.40316486 1.233522 -0.7032559 -0.87110394 1.2007331 -0.43312466 1.5646188 -1.4000561 0.026193121 -0.7031647 0.5158105 0.62341726 1.0947341 0.24918032 -0.38812894 -1.1229122 0.24921684 0.36677673 -0.2601584 -1.0225502 -0.4861313 -1.9003042 -0.49873817 -1.0464307 0.6316711 -0.7653783 -0.4653143 0.946987 0.2264113 0.04124657 1.1118451 -0.8718945 0.941043 0.3116702 0.56835127 -1.1103694 -0.45585126 -0.760392 0.81497073 0.28180647 0.8159575 -0.12697405 0.63069445 -0.67635566 -1.1409023 -1.3594954 0.32428774 -0.25149328 0.11430766 -0.8260376 0.4417933 0.5156485 -1.531307 0.6916263 0.28898832
225 0.64956594 0.99605435 0.07333503 -1.3705777 -0.26146114 -0.7394412 -0.6879096 0.1476555 -0.41104937 0.61068237 0.5040823 -0.4892722 1.1555698 0.6007496 -0.26077008 0.28233355 0.4329326 -1.1890537 -0.05471092 0.5020804 0.16829437 -0.056317486 -0.95806605 0.75988907 -1.316016 -0.20243658 1.1765821 -0.54516166 -0.8019679 0.4481899 0.15469457 -0.60646737 -0.13132004 -0.6625737 -0.9202444 -0.82772976 0.08772736 0.2872284 -0.38070458 0.27660048 -0.26034695 0.62711656 0.16367799 0.6932474 -1.1287494 1.196348 0.40611416 0.3811264 0.73480517 -0.81147027 -1.596679 -0.78329945 -0.15245204 -0.4508899 0.40237796 0.31483698 0.38651 -0.3084782 -1.5218761 -0.012838709 0.93427855 -0.73438233 0.5810134 0.35860774
129 1.3399671 0.003112635 0.08877755 0.3232089 -1.1395655 0.333901 0.5346837 0.067382194 0.1117957 0.20283039 -0.4155173 -0.14488679 0.08109309 0.6708045 0.43396124 1.0181345 -0.14447784 -0.45069903 0.2302792 0.09770912 0.8192087 0.2828432 0.558776 0.6332523 -0.40041474 0.516555 0.45265076 0.15376733 -0.47547445 1.3405237 0.30486402 -0.6399338 0.041458078 -0.21044128 0.4942225 -0.945243 -0.0429935 0.5454823 -0.57536036 -0.08657996 -0.050509028 0.9759908 -0.23202054 0.8255075 -0.3413109 0.8656882 -0.41258445 -0.14850616 0.5492834 0.34993574 -2.0718684 0.15789278 -0.39936602 -0.9575929 0.020394132 0.6281842 0.3285655 0.46741518 -0.58212423 -0.7401248 0.7522127 -0.05752582 -0.22247514 0.21367314
258 0.15746923 0.8210331 -0.2549298 -0.6084218 -0.08595675 -0.09751175 0.56962514 -0.7024826 0.4386413 1.079254 1.031739 -0.3613786 -0.30293003 0.17073311 -0.76212096 1.4692112 -0.54277736 0.5387311 0.0128906425 -0.62297493 0.44101855 0.9663506 -0.10918765 -0.15920077 -0.035206906 -0.115855284 0.35533553 0.611501 -0.18035541 0.531249 0.9584403 0.0037014792 -0.6879658 0.3444462 -0.045690946 -0.16332407 0.019400975 1.3995847 0.060436953 -0.12748662 -0.7856729 1.2344623 0.8844156 1.2634227 0.06781157 0.37711746 0.15809363 -0.5461058 0.9993449 -0.18009137 -1.2806185 1.0518636 -0.3429145 -0.6518331 -0.067726694 -0.49548554 0.5945434 -0.3795229 -0.93735707 -0.8352159 -0.03278886 -0.20053107 0.013161554 0.36872467
277 0.09020481 0.14275113 0.2562199 -0.354181 0.602806 -0.21887386 0.25286034 0.04830698 0.6538395 1.362136 0.36242297 -0.09136673 0.31481972 0.71529245 -0.021019582 1.2006749 -0.057602882 -0.28744578 -0.40256086 -0.08106352 1.1809007 1.0314069 0.10567571 0.9994423 0.53583056 0.363264 -0.2781599 0.17850977 -0.4819555 1.8108656 0.37449753 -0.18694812 0.5632702 -1.0806458 0.5745455 -0.9215143 -0.14062338 0.27458534 -0.122272536 0.6583022 0.33820686 1.0307951 0.43572417 0.34976178 -0.7320968 -0.24489838 0.9251217 0.15545538 0.9658412 0.3864736 -1.2610544 -0.38646936 0.08316252 -0.46797577 0.09125151 0.45627758 0.66106665 -0.31235394 -1.1721784 -0.6937478 -0.21679477 -0.16933809 -0.2623277 -0.22540744
89 0.75664115 -0.6501984 0.12414263 -0.7266849 0.56621647 0.278759 0.16264294 0.07661652 0.4972251 0.5458515 -0.39190882 0.14292765 0.004444884 0.030428024 -0.080953605 0.7255863 -0.8576692 -0.06406161 0.41352358 0.48194048 0.7309833 1.1531835 -0.45301837 0.6695506 -0.74100816 -0.84925944 -0.44412372 0.34916732 -0.31757733 1.4715508 0.35587683 -0.43622044 0.1502571 0.06372889 0.18915014 0.34465972 0.62665886 0.7275834 0.16643113 0.725687 -0.2180236 0.7077338 0.3629944 0.42048892 -1.1142219 0.5789402 0.08124471 -0.15939583 1.3946286 0.6593877 -1.2966285 0.10409006 -0.7672876 -0.66628546 0.3353994 0.38544232 0.56994855 -0.43565288 0.025725387 -1.0950456 0.2945548 -0.23073593 -0.44399837 -0.4162319
275 5.0517087 0.35430762 0.9155315 -5.5970697 1.3440645 -0.8747236 3.7919075 1.0425988 0.35861966 0.9359292 -1.5513963 -2.1383822 4.389686 5.3566074 -0.16735229 0.10669383 1.0127345 -2.3284905 -1.4018389 1.8251545 -0.44500703 0.81160444 1.8683819 -2.515475 2.2804766 -0.32014927 2.4410372 -3.0067134 -2.0515823 -2.2726984 1.6723005 -0.590668 -3.530754 -2.093321 0.35073805 -1.704734 1.0037364 -5.185346 -2.6593623 3.6040945 0.25898248 1.3757889 -3.0609195 1.8526428 -3.4883113 -0.20312482 -1.7949017 -1.5627334 5.8045263 -1.4289833 -3.036324 -1.3267573 -1.9607906 0.113887735 -1.6892422 -2.2082007 -1.7653216 -0.04369043 3.1002595 1.7618488 2.597794 2.5436342 -0.271774 -0.20144898
83 1.3098304 -0.2822134 0.39331824 -0.5493499 0.44665545 -0.7916405 -0.5175168 0.2229369 0.5204766 0.9010585 -0.27459168 0.15537746 1.0483121 -0.14745286 -0.578269 0.5549885 -0.27183592 -0.61791265 -0.009284377 0.574766 1.9218286 0.9274462 1.3483877 0.49124667 -0.7803729 -0.95869184 -0.17354432 0.17151278 -0.20952754 1.4729729 1.2763631 0.03337991 0.7524989 -0.6686812 0.21550712 -0.8354595 -0.16851807 1.0049225 -0.06923407 -0.37367454 0.21580955 1.4593586 0.8444107 0.0050750426 -1.3953998 0.512693 -0.2563645 0.44731998 0.4780099 0.2857525 -1.526084 0.14544421 0.402964 -0.14861618 0.35696244 -0.1744122 0.6166351 0.07803036 -0.618543 -0.68572325 -0.40160167 -0.39537174 0.04964596 0.46672297
20 5.1565485 0.3520867 0.9267992 -5.702847 1.3923671 -0.8999111 3.8717513 1.085992 0.40880537 0.9549161 -1.5997775 -2.218592 4.4923406 5.4709954 -0.17471568 0.0939238 1.0571901 -2.3810012 -1.4225235 1.8533612 -0.44654036 0.82529527 1.9089458 -2.5725932 2.3447015 -0.3129369 2.481234 -3.0756297 -2.1017454 -2.3328183 1.729575 -0.5989507 -3.6137474 -2.1437595 0.34672576 -1.7442296 1.0194255 -5.317878 -2.730167 3.6848423 0.24049129 1.3946445 -3.1491563 1.8888761 -3.5619135 -0.2054579 -1.8370069 -1.6127602 5.941901 -1.4644217 -3.106909 -1.3548201 -2.0011451 0.13082549 -1.7310785 -2.2544293 -1.8346187 -0.058559258 3.1665583 1.7895656 2.6715415 2.631997 -0.29213244 -0.20244205
7 5.087344 0.36609372 0.9229178 -5.6328177 1.3673549 -0.8834662 3.8178756 1.067383 0.3857903 0.9449332 -1.5731883 -2.1689708 4.4255133 5.40494 -0.15722416 0.11262449 1.0390183 -2.3679147 -1.388392 1.8119807 -0.44783622 0.81667095 1.8933045 -2.53808 2.3039305 -0.30695048 2.458393 -3.032561 -2.0753212 -2.3137405 1.6846845 -0.5929435 -3.5527794 -2.1116087 0.34954354 -1.7126361 0.99908745 -5.2443566 -2.6896026 3.6356485 0.2534406 1.3778981 -3.0930662 1.8512744 -3.519391 -0.20858617 -1.7970406 -1.5849835 5.868734 -1.4514059 -3.0512178 -1.3456693 -1.9614097 0.11397129 -1.6912605 -2.2138202 -1.7980969 -0.060724545 3.1036172 1.7710475 2.6359377 2.5740824 -0.2621239 -0.18857947
24 0.3264504 0.5292104 -0.19534633 -0.10726603 -0.4449911 -0.19652605 -0.34686127 -0.43759143 0.55166775 1.9352691 1.6675218 0.017701382 -0.30010188 -0.22982252 0.18276264 0.61072963 0.35657716 -0.58701056 -0.4124897 -0.32595155 0.5819417 0.5194524 1.9618987 0.44079903 -0.30250454 -0.55348104 0.0014658927 0.23828234 -0.13609579 1.4444402 0.19949302 -0.7067693 -0.100593895 -0.83472687 0.5803937 -1.1064397 0.45392057 0.23817454 -0.1430311 0.58687997 1.2972282 1.3410722 0.59088945 -0.16229248 -0.47482744 0.23667967 0.5473265 -0.31012052 0.20968147 -0.15313143 -0.13811086 -0.009888839 -0.7911345 0.15022074 0.0098375995 -0.7313455 0.1224314 0.68537647 -1.1648532 -0.11261776 -0.7586329 -0.8649223 0.45079207 0.6599916
57 -0.24403611 -0.26230535 0.2795782 -0.258113 -0.53671503 0.22667989 -0.32408556 -0.15461934 0.04774462 0.66628313 0.3881984 0.16646658 -0.10341097 0.48802698 0.6566841 -0.005009284 -0.395312 -0.062821835 -0.35006776 -0.15513988 0.2486985 0.019698026 0.39155906 -0.21033087 -0.30748978 -0.19216967 -0.44208494 -0.46590325 -0.8606613 0.50747794 0.13294505 0.18333328 -0.5570289 -0.34648785 -0.68197024 -0.55268896 0.08490271 1.2564524 -0.15495604 -0.13897027 -0.26979926 -0.22416754 0.047616933 0.32964566 -0.57264066 0.2519442 0.15821417 -0.24709867 0.5915364 -0.823835 -0.45581946 -0.18802339 -0.14148629 0.51144886 -0.2299452 -0.004965592 -0.12689498 -0.096116744 -0.23834632 -0.18007733 -0.48773035 -0.5433965 0.12945591 -0.17486948
150 -0.027692357 -0.3117883 0.4616998 -0.5032566 -0.12178134 -0.3228762 0.10808622 0.22980389 0.20000818 0.38086542 0.13464034 -0.16195467 -0.17928194 0.60376585 0.11161654 0.31846648 0.05700565 -0.090608805 -0.16777048 -0.12237927 0.02913692 0.2452561 0.44646776 0.091732 -0.7847801 -0.2808305 -0.290765 0.24725153 -0.7227803 0.5400907 -0.40601715 -0.009701343 0.08781695 -0.06430959 -0.16481511 -0.2954772 0.120275415 -0.20280991 -0.008181023 -0.15258229 0.5939694 0.49307916 0.45813558 0.60719705 -0.7392028 0.020631747 -0.16663246 -0.28932133 0.8222274 0.4509083 0.08235733 -0.47333735 0.17795815 -0.03471474 0.009237212 0.18540558 0.64953285 0.44950292 -0.19374824 -0.5290152 -0.07606988 -0.13451283 0.38745844 0.3040026
198 0.43391174 0.26362437 0.24859269 -0.6956991 -0.0026838933 0.26184282 -0.012060002 0.042209055 -0.10696365 0.23667732 0.3925961 -0.44561356 -0.3417966 0.74164724 0.0029527668 0.20745161 -0.21340676 -0.6578262 -0.56328654 0.24103355 0.16765893 0.0626235 0.058662698 -0.09325731 -0.05505823 -0.15175612 0.24540235 0.06587812 -0.15793207 1.1678373 -0.12657206 -0.32816565 0.06611311 0.06941773 -0.012795158 -0.101046644 -0.47437862 0.3252334 -0.49339688 -0.14922768 0.2783408 0.47673962 0.30163682 0.1410043 -0.4453257 -0.16842875 0.15938753 -0.27459475 0.67123693 -0.06910467 -0.080763325 0.43492982 -0.6204501 -0.12125454 0.32272577 -0.13864556 -0.14391547 -0.011256047 -0.65194154 0.1349475 0.02783572 -0.16822855 -0.43875664 0.21860117
148 -0.26557362 -0.31451833 0.2622874 -0.3718135 -0.22458087 -0.29214972 0.10196559 0.13609748 0.03998212 0.31950068 0.033559654 -0.24464777 -0.07747713 0.67343533 0.18336363 0.40917245 0.031112833 -0.2351348 -0.20055947 -0.037355848 -0.20641306 0.25587252 0.57995504 0.087815344 -0.83193403 -0.41299134 -0.3219983 0.009991991 -0.83012486 0.6123418 -0.3198258 0.06946967 -0.098737955 -0.058519308 -0.21992348 -0.34091222 0.1743292 -0.14924076 -0.12900977 -0.12648039 0.46063066 0.41329452 0.3275581 0.4644816 -0.64916086 -0.23244566 -0.01364251 -0.26280653 0.74642533 0.28025645 0.16632572 -0.6343813 0.004426744 0.08948708 0.12186242 0.17373933 0.5745991 0.4952894 -0.23672993 -0.33221942 0.17722899 -0.11059601 0.23310743 0.35434216
293 -0.3560052 -0.2853124 0.26198834 -0.20167126 -0.18150777 0.013949637 -0.08719289 0.17044504 -0.15246338 0.28817615 -0.052921683 -0.06464097 -0.16537246 0.47688466 0.49040958 0.43555832 0.13036197 -0.3818787 -0.2893669 0.10789596 -0.22253266 0.26814738 0.52254176 0.15520494 -1.0444932 -0.18482205 -0.53105074 -0.1512788 -0.71732193 0.5720451 -0.3606289 0.047654748 -0.04633976 -0.01715005 -0.33632627 -0.47065467 0.15827121 0.043254845 -0.051512595 -0.08269161 0.51008886 0.5874856 0.12722318 0.53650856 -0.6113407 -0.27236244 0.09681417 -0.15624416 0.7217743 0.19595811 0.14967413 -0.57566214 -0.057851944 0.14428933 0.16577223 0.15347973 0.31497866 0.33476463 -0.18236478 -0.27139503 0.39618745 -0.054471795 0.23966528 0.4634624
28 0.0078127235 -0.04973377 0.4371222 -0.2064893 -0.5511075 0.19236612 -0.20401143 0.4913121 0.03333725 0.8310721 0.5232147 0.22695081 -0.25423703 0.5215481 0.6601489 0.30570897 -0.4153093 0.22326522 -0.32639006 0.04425663 0.33156496 0.20870492 0.08757549 -0.23949784 -0.32771733 -0.33185324 -0.18191437 -0.3187616 -0.9438137 0.7094101 0.11841523 -0.024814934 -0.59314924 -0.16834736 -0.34957433 -0.35330433 -0.08287021 0.7734971 -0.38529995 -0.228436 -0.20444961 -0.06814648 -0.19728859 0.016715338 -0.5286645 0.25781566 0.3797818 -0.25764632 0.4980855 -0.968497 -0.664918 -0.21283518 -0.055883173 0.32577 -0.4589889 0.0011134688 -0.3113642 -0.1324139 0.036560785 -0.32700557 -0.6066253 -0.2836859 0.28429148 -0.089530945
196 0.42379346 0.20061499 0.22021423 -0.58091885 -0.100304365 0.03987681 -0.07964303 -0.09705552 -0.21839851 0.40454623 0.3516568 -0.5078205 -0.3823243 0.7532247 -0.07117453 0.27844527 0.02586933 -0.48083413 -0.5812837 0.11136688 0.37528974 0.020103106 0.0864544 -0.25240842 0.08137944 0.23841971 0.0027233565 0.06132995 0.0074301916 1.1181637 -0.18109852 -0.27700406 -0.03312696 0.23941138 0.005456727 -0.12749311 -0.38982895 0.2399177 -0.56320655 -0.08235945 0.14979309 0.4873513 0.5080858 0.2609605 -0.4803175 -0.113544874 0.13976221 -0.30409375 0.64666766 -0.1574644 -0.26718318 0.29144174 -0.33619875 -0.29778332 0.3753049 -0.1167553 -0.20317505 0.040286213 -0.47903076 0.06505837 -0.00021632403 -0.24483705 -0.47944286 0.197031
194 0.44334787 -0.003106685 0.2616518 -0.4365601 -0.23439121 0.102848366 -0.26085883 -0.011101562 -0.09192271 0.49557513 0.22164622 -0.33036307 -0.72122073 0.63125545 -0.11621333 0.23751377 0.005035778 -0.5176864 -0.56985813 0.061761215 0.3917054 0.018928273 0.01763493 -0.17949638 0.06735824 0.39286163 -0.13103282 0.17414933 0.08093878 0.9868269 -0.23086227 -0.21271929 -0.03846198 0.18293251 0.074362606 -0.12667736 -0.3445973 0.08251747 -0.7189638 0.031209903 0.26460385 0.38984922 0.32713565 0.19989818 -0.43740636 -0.2915881 0.10786229 -0.31784225 0.72870964 -0.35616264 -0.48717052 0.13006726 -0.434499 -0.3313367 0.34405363 -0.14375785 -0.28016293 0.12841788 -0.45678896 0.17055495 0.13820828 -0.3585892 -0.35398674 0.18738677
192 0.31049815 -0.02964682 0.41436434 -0.4232754 -0.25342682 0.14182824 -0.38122672 -0.1883628 0.0339864 0.4127298 0.15669222 -0.5243027 -0.7210535 0.5055378 -0.18213966 0.13658635 0.009360851 -0.5301035 -0.47525108 0.035062354 0.243888 0.30525172 0.011334232 -0.49889863 -0.019023016 0.43875995 -0.34959468 0.03463635 -0.05170868 0.94272226 -0.07840172 -0.122972675 0.054683603 0.368326 0.113776624 -0.114249304 -0.19729763 0.04679924 -0.6196173 0.17395772 0.30418262 0.5436855 0.23201194 0.23840488 -0.35072762 -0.3662543 0.07472165 -0.19684686 0.8003133 -0.50763524 -0.6237956 0.10201747 -0.33415243 -0.42137244 0.18421781 -0.22831194 -0.34326005 0.15869077 -0.37584746 0.32150814 0.07207981 -0.34230083 -0.2689536 0.0769613
299 -0.46236727 -0.15185238 0.4055837 -0.29348907 -0.31634733 -0.004675988 -0.23265755 0.23475422 -0.19459578 0.13000196 0.0152106155 -0.031231858 -0.05629853 0.52670556 0.5944376 0.6304694 0.16764954 -0.08516678 -0.33835876 0.12909982 -0.3214569 0.29630888 0.4641604 0.3463825 -1.0625995 -0.25187337 -0.541983 -0.28245798 -0.63679254 0.58665997 -0.30262715 0.09084962 -0.29106843 -0.00040776868 -0.20062977 -0.41666067 0.01617299 0.31119123 -0.09377917 -0.07709084 0.39129058 0.56558454 0.116252035 0.35102782 -0.6594691 -0.24274623 0.30007 -0.039730843 0.7518186 0.33133548 0.12259409 -0.5706472 -0.06739466 0.07054601 0.2576161 0.031686246 0.02684453 0.21257733 -0.09089565 -0.23808247 0.49299765 -0.06931648 0.06205672 0.35492533
190 0.1838719 -0.04394998 0.44943583 -0.26231277 -0.4128318 0.24664167 -0.39735085 -0.20089361 0.16715343 0.50022787 0.21232586 -0.49647072 -0.87352467 0.40839773 -0.35907635 0.34137902 0.0360576 -0.5494448 -0.43250504 0.18087593 0.16894537 0.4403605 0.040037632 -0.44662482 -0.009175271 0.17687894 -0.361692 -0.0065938425 0.12991862 0.97216904 0.0044177766 -0.049334306 0.04516626 0.26498646 0.10318632 -0.14903943 -0.05027751 -0.09838841 -0.51222265 0.20988579 0.22845674 0.46996823 0.14732723 0.3902351 -0.18191408 -0.3898477 -0.0023482514 -0.09777395 0.9918714 -0.6719141 -0.7203033 -0.018789832 -0.33206812 -0.27878934 0.32130015 -0.29904813 -0.10793377 0.18618713 -0.43863174 0.4403427 0.13814798 -0.27261913 -0.46723944 -0.09049395
67 0.75620425 -0.024195109 -0.1926326 -0.2326527 -0.28655282 0.16316928 0.050067045 -0.4524447 -0.1280416 0.7283362 0.32082942 -0.43313852 -0.07234853 -0.0149862785 -0.097999655 1.1306219 -0.36624992 -0.27829817 -0.015463446 0.29125673 0.16287233 -0.6028296 0.007962307 -0.6486851 -1.2661171 -0.34969702 0.34106302 0.38387188 -0.26680446 0.28292516 -0.055268407 -0.30592135 -0.89212537 0.1325986 -0.14801349 -0.7553627 0.23701006 0.6914843 -0.16981809 0.4374624 0.67299455 0.40126264 0.42202204 0.6286804 -0.42451656 -0.26777697 -0.3898892 0.0064518107 -0.4960931 0.62085396 -0.34591657 0.032904215 -0.14434503 -0.028924774 -0.22926539 -0.43274674 0.2873989 -0.2901143 0.445052 0.48225984 0.18049327 -0.22026291 -0.12256379 -0.83220655
121 -0.2603491 -0.24334134 0.4258798 -0.2663169 -0.65640587 0.1315398 -0.29622784 0.39610577 -0.27961987 0.30337188 -0.054108415 -0.01672224 -0.12506844 0.36638644 0.50037056 0.5871784 -0.05781122 0.096368745 -0.31683385 0.026578832 -0.30946022 0.09407489 0.43516895 0.5156948 -1.1231543 -0.1716182 -0.6821149 -0.37501547 -0.6980396 0.6578302 -0.27725214 0.21514557 -0.37568486 0.15725283 -0.21888803 -0.11829417 -0.051440425 0.38782063 0.079201 -0.013599472 0.33727726 0.59387386 -0.04980912 0.34532776 -0.742745 -0.014406325 0.40406853 -0.04644244 0.74982524 0.2056534 0.016441582 -0.5582817 -0.115100004 0.0040296935 0.27021164 0.0641477 0.0023475895 0.11072258 0.049986135 -0.39281157 0.78803754 -0.04999646 0.08420567 0.23824064
46 0.5662278 0.71243924 0.008566615 -0.7736205 -0.4597647 0.7870353 -0.013985825 0.50818765 -0.33873695 0.30341655 0.36172485 0.21982045 -0.0743359 0.097574145 0.2229006 0.29236057 -0.47537994 -0.24476317 0.4416707 0.8134613 0.23306283 0.4153108 0.30212072 -0.2179203 -0.35064355 -0.05232845 0.19261047 0.38581192 -0.048190966 0.066659205 -0.43485332 -0.56237644 -1.0553219 -0.11715616 0.0044025495 -0.42941865 0.7027932 0.11826697 -0.029350083 -0.059016183 0.42014822 0.3467116 -0.01809392 0.2974761 -0.08591172 -0.6258451 0.47020665 -0.79673404 0.32978427 0.13254035 0.038510974 -0.16108358 0.7875866 -0.97204006 -0.31211174 -0.19694686 -0.0056135757 0.14461036 -0.8054674 0.17233968 -0.14558478 -0.6207967 0.38913023 -0.42563263
289 0.06478784 -0.24786955 0.59652966 -0.5030079 -0.5046317 0.1769374 -0.37994906 -0.0801345 0.22961359 0.26478618 0.16171736 -0.4509495 -0.8371497 0.23033488 -0.24613217 0.35701978 0.15185167 -0.5488658 -0.4623388 0.17062274 0.26816058 0.34402505 -0.0200022 -0.43290493 -0.08930194 0.1484987 -0.180015 -0.21537837 0.1082349 1.1697804 0.20469545 -0.007550615 -0.0028823214 0.34013352 0.14897743 -0.07831074 -0.08248871 -0.0565857 -0.40903077 0.4724208 0.24990547 0.70079696 0.26003826 0.346083 -0.040863477 -0.5819136 -0.05989545 0.06589384 0.8918415 -0.6691004 -0.8784403 -0.04048523 -0.39716443 -0.19945724 0.2509163 -0.3041427 -0.014980495 0.23976552 -0.43131688 0.49827796 -0.0705897 -0.33635625 -0.36617592 -0.2146594
30 1.0485668 0.14554399 0.053316347 -0.17846657 -0.31633833 -0.061939944 0.2912826 -0.2756506 -0.14363927 0.6117674 0.3645598 -0.48715535 -0.124608584 0.2689099 -0.14530443 1.0592949 -0.48929077 -0.54427606 -0.15106024 0.22068277 -0.010241174 -0.7466813 0.11482084 -0.6103781 -1.2870264 -0.39766234 -0.07489847 0.5608232 -0.31705925 0.2121265 -0.03097787 -0.32480925 -0.860131 -0.050159354 -0.0884033 -0.64395314 0.1154523 0.6289373 -0.00089243 0.6400254 0.6432883 0.31828097 0.4869798 0.45704076 -0.19173947 -0.15460849 -0.47169152 -0.11478091 -0.48264092 0.5197521 -0.5031052 0.29209575 -0.11650175 0.12810394 -0.26324216 -0.12422165 0.3366103 -0.0013116583 0.42253682 0.6071009 0.05084049 -0.3984372 0.02159977 -0.5758152
278 0.2258955 -0.35910517 0.75028795 -0.57418686 -0.35714903 -0.057843372 -0.49287662 -0.14257601 0.23411971 0.1607279 0.21282333 -0.36858565 -0.79195607 0.29708424 -0.25315934 0.5570074 0.22608592 -0.5195974 -0.48638728 0.0043364456 0.14884639 0.46391156 -0.078370675 -0.27493966 -0.1712889 -0.052318785 0.020193912 0.074448384 0.18947926 1.3944271 0.15376554 0.23929091 -0.14416996 0.39972645 -0.047052417 0.03845875 -0.05560379 -0.013432916 -0.43377948 0.59170276 0.4418387 0.6517689 0.1628927 0.50051993 0.087751776 -0.4501571 0.17423905 0.230898 0.7826094 -0.75367206 -0.8974709 -0.059738524 -0.26706827 -0.2646315 0.3401997 -0.13672677 0.09857856 0.2704564 -0.48485118 0.6475452 -0.13650219 -0.3145093 -0.47700545 -0.16781566
110 -0.2827198 -0.18402429 0.47297758 -0.65784186 -0.814238 -0.1468544 -0.29163367 0.44149965 -0.19575211 0.4257811 -0.23511007 -0.06765972 -0.1553519 0.34028223 0.45919204 0.51503897 0.17736247 0.29017738 -0.37105337 -0.06307991 -0.26651546 -0.0155885415 0.6452639 0.2792568 -1.1320636 -0.10640003 -0.6348908 -0.32302296 -0.6725082 0.7946531 -0.4541703 0.4214848 -0.2071904 0.14316522 -0.28895277 -0.08159598 -0.0716994 0.61451805 0.060041115 -0.123945884 0.18924156 0.6809563 -0.10707207 0.43823808 -0.8416984 0.47527504 0.39898443 -0.016760904 0.6779308 0.12855214 -0.06664491 -0.40272444 0.023512395 -0.029408932 0.34175092 -0.110818975 -0.14537123 -0.20730184 0.22310452 -0.3771157 0.5057335 -0.0924553 0.24888329 0.04106377
243 -0.2424402 0.23241013 0.41557792 -0.0424815 -0.35761148 0.18879086 0.0063129123 0.11703197 -0.50341636 0.5095383 0.44975987 0.32610336 -0.15383598 0.26726767 0.49258325 0.5362037 -0.57314914 -0.14086601 -0.5646999 0.06713949 0.4476827 0.21162911 0.07082594 -0.3114636 -0.6071093 -0.29706588 -0.0509716 -0.07362722 -0.7267626 0.67886007 -0.093556546 -0.16672727 -0.2613298 -0.14616904 -0.15714127 0.03240303 -0.041033242 0.8628248 -0.13412765 -0.23702776 -0.33419937 0.29886407 -0.20316815 -0.02881879 -0.392976 0.30811727 0.26132867 -0.033925563 0.43163443 -1.0221764 -0.61981046 -0.27271467 -0.4418582 0.22339506 -0.31840247 -0.2865306 -0.081674665 -0.084831774 -0.04146933 -0.2717354 -0.54137915 -0.42134938 0.35814676 -0.21053556
290 -0.49313 -0.42498994 0.63018554 -0.67362916 -0.9311158 -0.24122833 -0.20688267 0.547885 -0.2828212 0.595153 -0.2580094 0.16457677 -0.44465232 0.49883935 0.50812936 0.3223001 0.08527797 0.21555842 -0.4048792 -0.10895904 -0.16552217 0.04791031 0.5254553 0.28297195 -1.0106342 -0.037907973 -0.5897457 -0.26436722 -0.6996512 0.8845409 -0.5602423 0.36432895 -0.45059294 0.1982684 -0.3624642 -0.29118994 -0.007565384 0.29302835 0.0065430333 -0.25444204 -0.20444174 0.68332255 -0.14550889 0.51740324 -0.9194126 0.88694805 0.3261328 -0.12477545 0.87178093 0.017167842 -0.18466865 -0.32389298 0.18606012 -0.04107734 0.3276931 -0.064186156 -0.08826363 -0.1701726 0.15375766 -0.5404882 0.37816384 -0.019769374 0.225124 -0.3892622
253 1.0835023 0.20390859 0.30410993 -0.007858212 -0.2996947 -0.034852292 0.2821982 -0.106626034 0.06685451 0.6837837 0.538396 -0.46416265 -0.18133247 0.23699452 0.042193975 0.9785936 -0.6778966 -0.49145418 -0.39079067 0.03535758 -0.23305264 -0.6699171 0.26367563 -0.60589135 -1.2174846 -0.16517358 -0.18769762 0.6670597 -0.14774105 -0.053223163 -0.14238462 -0.27128303 -1.0977504 -0.14236498 -0.09931416 -0.8082053 -0.1684477 0.5454334 -0.028835787 0.5174366 0.62320846 0.43284485 0.34369963 0.1399078 -0.23534344 -0.39167076 -0.6705103 -0.21839587 -0.27605408 0.4166986 -0.5520244 0.52980644 -0.28226712 0.13127734 -0.10244398 0.0025576649 0.10537109 0.22553614 0.3988263 0.4352793 0.17272009 -0.13445747 0.19212984 -0.5586073
141 0.26189294 -0.40663663 0.92092353 -0.7784801 -0.48356736 -0.005097947 -0.42612538 0.09638999 -0.049654335 0.010483426 0.03540039 -0.40358406 -0.9863256 0.24266791 -0.17795514 0.8017524 0.40345258 -0.58993596 -0.59821033 -0.08973691 0.33145034 0.53198946 0.073906265 0.060357515 -0.27189177 -0.015432869 -0.13771485 0.17002353 0.24937485 1.2551703 -0.104754984 0.35049123 -0.09978213 0.5105222 -0.027933521 -0.15469769 -0.19616605 -0.030060316 -0.42322513 0.74651384 0.3673273 0.84806716 0.22212745 0.38438326 0.007101355 -0.26137283 0.18356347 0.30669245 0.66383 -0.700953 -0.9201033 0.096386924 -0.11046235 -0.38988164 0.54068613 -0.09456553 0.0075158207 0.21965529 -0.31557858 0.65019697 -0.009652443 -0.20960213 -0.45940885 -0.1715673
174 0.7125846 0.35576183 -0.09980015 -0.0044564796 0.1500772 -0.19922064 0.3322595 0.22128873 0.45042422 0.7176833 0.34311488 -1.0296221 0.057611834 0.40547863 0.25530922 0.40424812 -0.5639109 -0.38574824 -0.6326157 -0.09497895 -0.19257767 0.083838865 0.56737924 -0.2557409 -1.1213776 -0.5585656 -0.48216265 0.23371154 0.16792817 0.0371191 -0.3486756 -0.10290859 -1.1803643 -0.3546365 0.30229688 -0.8684628 -0.037661232 0.6083505 0.13718256 0.46945602 0.48311052 0.6752776 -0.080578364 -0.21638907 -0.26796028 -0.64369184 -0.7249093 -0.486834 0.19633064 -0.01113079 -0.66756386 0.16354828 -0.39468026 -0.4232471 0.026290055 -0.02188078 0.50131893 -0.18969466 0.13797511 0.34087077 -0.40383473 0.13142519 -0.13085029 0.0027095608
269 -0.56174344 -0.5243006 0.7724581 -0.6350052 -0.82376236 -0.42221284 -0.104648985 0.61951834 0.04310573 0.81530035 -0.22483514 0.44107854 -0.5393216 0.52276576 0.6760323 0.36863637 0.092592806 0.36458954 -0.38267657 -0.1663606 -0.25329298 0.1701135 0.6229839 0.15289772 -0.9719137 0.08121567 -0.5636613 -0.121287525 -0.80500877 1.0053825 -0.77297735 0.39129528 -0.46702424 0.123974234 -0.6437195 -0.26603997 0.008602932 0.54260933 -0.09272869 -0.47847462 -0.56785905 0.54011273 -0.24914405 0.48745462 -0.7955377 0.6948031 0.26408222 -0.2366076 1.0542098 -0.0693337 -0.32413483 -0.066805325 0.22522171 -0.15511577 0.36012647 0.0020770882 -0.044083595 -0.19083151 0.1468747 -0.28714678 0.18466789 0.13061588 0.48914158 -0.4200827
124 1.1137176 0.34232232 0.12352917 0.04755761 -0.18637212 -0.17151333 0.42086256 0.032011703 0.40626985 0.66429186 0.5027112 -0.7590584 -0.0031555006 0.08710608 0.309598 0.9223005 -0.6432081 -0.73905534 -0.631464 0.024534475 -0.24313194 -0.26152948 0.38761872 -0.46440354 -1.2863938 -0.19027333 -0.2514625 0.5670495 -0.04527692 -0.13669066 -0.31796038 -0.3467153 -0.80372465 -0.22489633 -0.08008827 -0.8121668 -0.25642362 0.7835372 -0.12864825 0.36902022 0.56585526 0.69025415 0.21996696 -0.03837913 -0.23688264 -0.35482314 -0.7597642 -0.21986973 -0.2180778 0.3200855 -0.74977624 0.48377594 -0.1817115 0.19618428 -0.03942971 0.17481098 0.30902773 0.47771218 0.10803737 0.47576243 -0.15875903 0.02657074 0.15227327 -0.48358816
282 -0.07203274 0.23288594 0.49442267 -0.59431297 -0.1999695 0.2963859 0.61630607 -0.22332314 0.36576173 -0.028801953 0.5546877 0.25061157 -0.07061667 0.69260824 -0.046026643 0.57058996 -0.05844713 -0.7879344 -0.63054067 -0.5971415 0.105723634 0.24589756 0.10273317 -0.28435054 -0.31144777 -0.029299634 -0.34021142 0.03803269 -0.7034158 0.5340673 0.22807185 -0.36683813 -0.425992 -0.3744274 -0.30757844 -0.22677022 0.07885063 -0.09227947 -0.068755984 0.3624385 0.39706242 0.36821446 0.41859534 0.061237395 0.18513843 0.6757986 0.1546598 0.021934753 0.19202204 -0.23615402 -0.39845887 0.057577606 -0.039552618 -0.24573229 0.10149402 -0.32274416 -0.18905124 -0.1896143 -0.5385732 -0.45330465 0.43709317 0.28994635 0.36881623 0.07953917
188 0.17942607 -0.4389191 0.98525476 -0.73376113 -0.6131096 -0.18570271 -0.46639886 0.1377605 -0.0071492726 0.023401313 -0.14296398 -0.3738022 -1.0428629 0.04084052 -0.11161149 0.7829765 0.36644498 -0.666471 -0.5896054 -0.3437068 0.3900258 0.585488 0.0772171 -0.07211736 -0.4086527 0.029634457 -0.21837409 0.42012963 0.08124564 1.0875763 0.15007566 0.48786566 -0.24925639 0.6247835 -0.02012386 -0.09004539 -0.28093222 -0.142766 -0.37518725 0.57886606 0.4804037 0.8848396 -0.031360112 0.30709165 -0.24812366 0.028373055 0.07072525 0.40595585 0.7360242 -0.5494248 -1.108849 0.04926298 -0.28279254 -0.50657445 0.7383481 0.04609169 0.016790934 0.050790098 -0.2354285 0.69901276 0.021916663 -0.07859936 -0.5230344 -0.10407639
127 0.56946295 -0.35832626 0.28056195 -0.19493671 -0.038176093 0.62126803 0.69507277 0.062451717 -0.37588707 0.38435075 0.15253696 -0.64446217 -0.20298904 0.6495421 0.67812747 0.09389038 0.004259639 -0.6216569 -0.034029376 0.21429887 0.72564685 0.5942136 -0.02822632 -0.67417663 -0.5583863 0.21401232 0.262431 0.30677512 -0.65630734 0.25062677 0.4845044 0.40659103 -0.11867551 -1.0348527 -0.6132287 -0.14986874 0.28166008 0.35186476 -0.5911424 -0.033330932 0.23206846 0.20227112 0.10250377 -0.3284117 -0.3551802 -0.4721725 -0.23169068 0.53446895 0.6002673 -0.7495965 -0.18423855 -0.16362156 -0.11876818 -0.16830991 -0.054915648 0.6300111 0.08280655 -0.5134437 0.04644519 -0.69874513 0.24350302 -0.057869118 -0.2129836 0.06912146
250 -0.5674284 0.60871875 -0.702128 -0.5354903 -0.6112265 0.81582105 -0.13963085 0.17846015 0.19603242 0.016756644 0.329692 0.15812665 -0.45774862 0.36465457 -0.7520394 0.66894764 0.36071315 -0.36693633 0.13226788 0.58919454 0.54469633 0.10026149 0.23537944 -0.44171935 -0.42633545 -0.6859858 0.122856036 0.5613047 -1.2279911 0.082403295 0.024720628 -0.6057323 -0.16217382 0.18850923 -0.45720306 -0.6985884 -0.295431 0.19815089 -0.50562614 0.6356419 0.112951726 0.17438191 0.5686395 -0.034763936 -0.11244647 0.07693508 -0.41012058 0.21824707 0.6630068 0.12689143 0.17468382 0.39864567 0.12935452 -0.19392021 -0.71755016 0.4419497 -0.37816995 0.25837678 -0.27685755 -0.031108197 0.7260729 -1.0115521 -0.27701893 -0.7605294
236 -0.34567112 0.77972394 -0.6462701 -0.6964641 -0.6132409 0.59382063 -0.0815563 0.11999966 0.18802395 0.08051678 0.43733534 0.23094258 -0.34432116 0.44259936 -0.70337176 0.48063204 -0.056603488 -0.5738861 0.29188275 0.3832011 0.6284057 -0.03383971 0.29682824 -0.04620254 -0.59544194 -0.5902564 -0.06455288 0.6019665 -1.0568061 -0.10136969 -0.063119896 -0.61871517 0.039240066 0.13974349 -0.24612889 -0.4680497 -0.15154314 0.2731062 -0.3780084 0.63170314 -0.007202219 0.15915532 0.8099958 -0.29385203 -0.10072443 0.19464746 -0.5175278 0.12122399 0.6572588 0.12165471 0.38720924 0.6238294 -0.11500036 -0.36314866 -0.48085648 0.65978724 -0.37038377 0.3592702 -0.5382368 -0.23364012 0.67426705 -1.0465684 -0.047624696 -0.79747444
31 0.4748822 0.97842443 -0.055748545 -0.4099216 -0.30597615 0.119580306 -0.031997144 0.08409794 0.02160098 0.8905496 0.10831322 0.32019117 -0.12034569 0.25219864 0.1487963 -0.07361462 -0.6988426 0.0046894853 0.018983306 0.7128555 -0.39655456 0.63416326 0.793933 -0.17051026 -0.25583106 0.14923702 0.20892434 0.21940126 -0.104355745 0.09596749 -0.86142784 0.08047958 -0.28397474 -0.8272613 -0.092725135 -0.54145515 0.21110089 0.62683266 0.20045333 0.50782996 0.2563693 0.634863 0.31858695 -0.031313602 -0.58269316 -0.7140861 0.5189537 -0.68189025 -0.088686645 -0.20290019 -0.3182757 0.0038479872 0.4749421 -0.9893795 -0.32161713 -0.00021136118 0.41417077 0.1601438 -0.45284814 -0.0042091906 0.6808361 -1.0101854 -0.07509098 -0.43884146
207 0.7387344 -0.5178209 0.3963989 -0.027910082 -0.56855386 0.81745356 0.78440523 0.26006785 -0.23749016 0.5274548 0.31122056 -0.5214042 -0.24212943 0.5730244 0.49474007 -0.63026255 0.20521176 -0.37149677 0.41340405 -0.16151308 0.72763413 0.240562 0.24498257 -0.66083753 -0.7094191 0.2959213 0.11772582 0.21067907 -0.83776444 0.28263167 0.11463798 0.1185989 -0.021366175 -0.5914123 0.07110505 -0.21709402 0.4943942 0.4214988 -0.14130092 0.24243101 -0.07608854 0.14579609 0.24347404 0.11166856 -0.8226297 0.34295073 -0.539237 0.4172695 0.38331786 -0.85470504 -0.5364343 -0.122250386 -0.23716488 -0.28911406 0.12051489 0.30369368 0.031587124 -0.31779546 0.06212223 -1.1878939 -0.07611466 -0.642498 0.042031825 -0.47589082
254 0.2543984 -0.45195764 0.8343282 -0.6959806 -0.73544216 -0.44036216 -0.41784826 0.07159734 -0.057973143 0.021042487 -0.12943959 -0.20165016 -1.1327872 0.011416101 -0.13150743 0.85143983 0.5211158 -0.69204146 -0.56534237 -0.57473505 0.4480823 0.52238053 0.2232108 -0.07925322 -0.45117134 0.07732489 -0.39171094 0.36620456 -0.034071296 1.0624908 -0.13482222 0.53860676 -0.24683844 0.6016932 -0.17130895 -0.1646638 -0.03130687 -0.2534232 -0.25974703 0.4010116 0.09307583 0.94105893 0.24438007 0.18975307 -0.18354015 0.0048153107 -0.041341666 0.45605057 0.7779987 -0.62690544 -1.2220409 0.26428586 -0.16739495 -0.5622189 0.77278644 0.17875329 0.1777956 0.15909806 -0.29313582 0.74840355 -0.19517078 0.032587 -0.487898 -0.16746484
113 0.91359425 0.48829 0.15734084 0.059525684 0.031719867 -0.13327079 0.36215937 0.106630765 0.35682026 0.85278285 0.6158948 -0.85318613 0.077622674 0.32180995 0.2442613 0.65628594 -0.5879794 -0.4814787 -0.6277018 0.08199079 -0.32988423 -0.03295648 0.5841892 -0.37225974 -1.2989646 -0.38642812 -0.48302037 0.40713343 -0.020819092 -0.0801634 -0.34877816 -0.19346428 -0.8647639 -0.113704205 0.10274652 -0.7210814 0.018342372 0.71898437 0.12691118 0.48261806 0.40103394 0.6360337 0.082796186 -0.16536282 -0.25055024 -0.47643706 -0.77979654 -0.28921208 0.0037742835 0.13869837 -0.6221147 0.44011575 -0.26462165 -0.20070486 0.052196395 -0.010634584 0.42042294 0.09659602 0.25480577 0.30069366 -0.21323068 0.37403616 -0.017301586 -0.26391834
281 -0.028293258 0.031525303 0.4205354 -0.54861873 -0.25446352 0.28342277 0.5860444 -0.08479191 0.37536585 0.07803438 0.7015417 0.21827957 -0.052112296 0.53587806 0.03027965 0.6391359 -0.11582407 -0.66884094 -0.52738243 -0.61311734 0.19229448 0.2828049 0.05031941 -0.32324108 -0.435706 0.10670995 -0.2921058 -0.015670275 -0.59449404 0.5379919 -0.11617478 -0.4080853 -0.60672826 -0.5205501 -0.13034315 -0.1687755 -0.098846525 -0.23132609 0.040604196 0.16620414 0.22628587 0.22778238 0.30450454 0.25564045 0.24426645 0.4910595 0.115552984 -0.11300642 0.17710464 -0.20120056 -0.4778425 -0.013858556 -0.12699309 -0.34850585 0.10546764 -0.18831122 -0.19676082 -0.28914756 -0.7794756 -0.40807542 0.51244557 0.41107887 0.21241814 0.11189105
185 0.082770325 -0.36400256 0.95867074 -0.73377335 -0.7128322 -0.34630007 -0.31217965 0.21523295 0.17764997 0.38942876 -0.08701255 0.009987568 -1.1430304 -0.030092634 -0.06934847 0.91273975 0.7993836 -0.548841 -0.58668196 -0.5598234 0.40150762 0.7504516 0.39569098 -0.14061424 -0.4366804 0.17670444 -0.092267685 0.43894675 -0.05686325 0.9538288 -0.080948755 0.6004022 -0.395857 0.61356676 -0.29840168 -0.15804864 0.008131475 -0.43351793 -0.176326 0.408175 0.07471717 0.8322729 0.30910334 0.0051218523 -0.32470554 -0.09805222 -0.098630205 0.36403397 0.8143113 -0.5234431 -1.4720144 0.312514 -0.10375201 -0.6344977 0.63250005 0.10740564 0.36290938 0.24146588 -0.016201498 0.5863002 -0.20146213 0.2444738 -0.44067046 -0.1135406
118 0.70519626 -0.6931211 0.75366795 -0.13672127 -0.6599868 0.77069825 0.530116 0.23569278 0.11724178 0.5603859 0.68561083 -0.22546639 -0.23385972 0.9062672 0.5188221 -0.58477384 0.047640536 -0.01172159 0.35824665 0.014543786 0.4570059 0.3155568 0.3111818 -0.5992405 -0.4994831 0.19510078 0.3312989 0.26742622 -0.7813831 0.15986228 -0.30850685 0.11381396 -0.25112012 -0.5995673 0.12541963 -0.25080138 0.48656827 0.55984604 -0.5139348 -0.18977049 -0.32012808 0.17320004 0.4038301 -0.18395583 -0.6679577 0.34577927 -0.7520373 0.32152075 0.47735688 -0.7326362 -0.60862494 0.11650956 -0.33761537 -0.38189232 0.44580612 -0.20736448 0.025589125 -0.04605604 -0.038905192 -1.1620762 -0.4970551 -0.50493336 0.23223433 -0.5575002
283 -0.18677744 -0.17391783 0.312369 -0.5669568 -0.08064292 0.31295845 0.48964393 -0.061329294 0.3261804 0.03295298 0.7988614 0.1449644 -0.016339993 0.47403958 -0.15907967 0.7616755 0.04540215 -0.48085684 -0.54663485 -0.6797058 0.30693012 0.22601788 0.27986583 -0.5063717 -0.54206157 -0.054216854 -0.23801538 -0.08045628 -0.53963774 0.5686558 -0.19492085 -0.40345746 -0.48214826 -0.54444414 -0.12008496 -0.17937474 -0.027298026 -0.16592257 -0.008919732 0.25917566 0.25388923 0.23318574 0.22926973 0.25666547 0.15795359 0.42159373 0.039771527 -0.099045485 0.17170483 -0.20719048 -0.3847602 -0.04205543 -0.21218196 -0.35140258 0.07246397 -0.28113657 -0.2446825 -0.59340435 -0.7139359 -0.39553285 0.3431725 0.3536086 0.012760756 0.26856333
184 0.14495668 -0.62180895 0.7318912 -0.49447036 -0.61257577 -0.2847688 -0.27532047 0.3384453 0.40867582 0.4322237 -0.17082754 0.2327754 -1.0452958 -0.06827673 -0.21333931 0.7941866 0.7165124 -0.6632801 -0.5883962 -0.713192 0.35414678 0.834831 0.38714942 -0.15471984 -0.48140034 0.18864274 -0.15834278 0.2862093 -0.058235824 0.95920855 -0.12465838 0.66233015 -0.578067 0.4122081 -0.4524657 -0.053660464 0.0271613 -0.3019352 -0.2789263 0.69806516 -0.19837885 0.94224894 0.37192807 0.06627387 -0.2789139 -0.15965138 -0.15063225 0.6252946 0.6980787 -0.59558547 -1.3700141 0.23069204 -0.1510827 -0.87794006 0.38965857 0.16451977 0.33085325 0.3398703 0.015518965 0.5555657 -0.19910473 0.27893764 -0.40553826 -0.13210607
163 -0.18673095 0.9873019 -0.58807725 -0.8754194 -0.64493 0.17759815 -0.0051784213 0.03439869 0.3222281 0.2229842 0.5653831 0.22919534 -0.22393413 0.26002324 -0.6818669 0.56744164 -0.22120585 -0.41625628 0.23629083 0.39723104 0.5217224 0.21935219 0.50551933 0.16397429 -0.56094676 -0.3810391 0.046131417 0.5032806 -0.9074296 -0.18008474 -0.16163267 -0.38039672 -0.08006406 0.24751027 -0.24144293 -0.48136204 -0.20068175 0.23884082 -0.6437428 0.4854588 -0.0057137134 -0.040054824 0.9279984 -0.55509245 0.13060257 0.12965637 -0.7768992 -0.15736374 0.7007865 0.01689554 0.45211425 0.6990065 -0.30695462 -0.6048733 -0.34854776 0.33096138 -0.47909057 0.23284164 -0.6269637 -0.37879616 0.7139888 -1.1810023 0.15202549 -0.6366712
238 0.111056626 -0.11304394 -0.3392208 -0.5270091 -0.4079705 0.503241 -0.12026313 0.08348095 -0.0062740324 -0.05654181 -0.12516952 -0.16762294 -0.17618267 0.25611526 -0.16112868 0.48249194 -0.46700484 -0.45797932 -0.4031528 0.13366579 0.33713353 0.2853857 0.25655562 -0.23474512 -0.71475387 -0.2856982 0.56827265 0.5162054 -0.26771098 0.79602015 0.4112053 -0.5895937 -0.52574176 -0.24613503 -0.03986873 -0.1211978 0.87290925 0.53546214 -0.4559819 0.40672675 -0.21828316 0.45931488 0.24721253 0.090347245 -0.28176206 0.02556273 -0.2724386 -0.37409207 0.8488372 0.17417197 -0.08028428 -0.06866302 0.7723322 -0.107488915 -0.12496177 -0.19474325 -0.48303995 0.31682485 0.05293498 0.09719011 0.30459893 0.18813138 0.4898289 -0.22439957
176 0.80277246 0.3098899 -0.0908897 0.052361056 0.29175484 0.052748863 0.49936676 0.19391292 0.49062815 0.64697415 0.43291408 -0.93653864 0.0215138 0.29381034 0.52535146 0.22190927 -0.6379401 -0.35992336 -0.5516761 -0.19825095 -0.19701006 0.02769047 0.371817 0.10458395 -1.0159283 -0.54049706 -0.6998195 0.0132680135 0.15237966 0.19522844 -0.45177114 -0.062486105 -1.3597205 -0.123638384 0.36178994 -0.67391956 0.20084333 0.46217683 0.31840947 0.5141217 0.39308912 0.7194939 -0.02874087 -0.03846038 -0.116169274 -0.64625907 -0.65044135 -0.36551073 0.5140747 -0.06637519 -0.80989337 -0.04213148 -0.33840814 -0.75632364 0.017375082 -0.22302094 0.41533822 -0.2116841 -0.1013981 0.15810293 -0.48568538 0.001037406 -0.19758224 0.13267916
213 -0.5522474 -0.0068796277 -0.13418981 -0.23476508 -0.60013866 0.0039178897 0.16301315 0.33914614 0.27498156 0.6439462 -0.5612445 0.7229576 -0.5103237 0.590095 -0.09224012 1.1725172 -0.20021062 -0.5817921 -0.086608246 -0.40063354 0.29655397 0.807932 0.6300922 0.025438728 -1.2609556 0.115543984 0.4144419 0.24156548 -0.4690529 0.51492316 0.33680725 1.2206292 -0.76413953 0.2949788 -0.5599653 -0.33995268 -0.09361869 -0.13282618 -0.18976112 0.4738094 -0.14158675 0.7519506 -0.0025285536 0.70694816 0.03877488 0.019954845 0.304017 0.5139354 0.5560302 -0.18274412 -0.67563754 -0.32076305 -0.5501075 -0.635915 0.5821736 0.40232867 -0.3189367 -0.179031 0.19307317 0.36607137 -0.059745714 0.07324338 -0.08351736 -0.69768244
76 0.029081704 0.1407341 -0.1612069 -0.52399945 -0.27764237 0.5394483 -0.18290767 0.25307506 0.13119598 0.07469947 -0.15713985 -0.2226498 -0.20365559 0.12275162 -0.15955518 0.48382637 -0.56293803 -0.4361495 -0.56053424 0.12387504 0.40598428 0.1369278 0.40042838 -0.19986401 -0.77035373 0.113092184 0.47086632 0.71695447 -0.04719149 0.54861695 0.20576313 -0.5985154 -0.8116865 -0.25453606 -0.0014730592 -0.09261565 0.92315006 0.4455825 -0.5295633 0.37373683 -0.07302446 0.33017114 0.12741683 0.13698913 -0.38969317 0.05659543 -0.18741424 -0.5062722 0.6805135 0.17012276 -0.16161887 0.0069796853 0.8082462 -0.14820309 -0.24720359 -0.16210353 -0.35638955 0.33398816 0.11736068 -0.12306449 0.42951238 -0.05847555 0.4282204 -0.0045444327
288 -0.31443846 -0.45553365 0.15116014 -0.4993183 -0.13792947 0.34145266 0.5340138 -0.03804574 0.40360856 -0.06153162 0.65485185 0.04947171 -0.09273279 0.32055363 -0.21409786 0.7167618 -0.011751262 -0.395723 -0.65687835 -0.5610444 0.37868473 0.07333249 0.0029286847 -0.41268513 -0.54953134 0.10897218 -0.1971215 -0.15663251 -0.7692837 0.77013624 -0.18524125 -0.39071184 -0.49187833 -0.47376212 0.05891936 -0.2289541 0.03954282 -0.037789512 -0.10031287 0.15569742 0.19108117 0.24096508 0.20614876 0.4836028 0.19521262 0.43324718 -0.13000683 -0.042546224 0.16868046 -0.20671639 -0.3924636 -0.11267338 -0.26373127 -0.5666197 -0.11892685 -0.16183001 -0.21751735 -0.61917704 -0.67053866 -0.30289277 0.39496207 0.25574937 0.028819803 0.4289283
40 0.37285608 -0.55399126 -0.027117638 -0.48047942 -0.26454604 0.3645578 0.5003342 0.25607985 0.32335445 0.6400893 0.01935802 0.12551373 0.616909 0.37691322 0.16838805 0.8147237 0.08492166 -0.41570604 -0.91742676 -0.35932368 -0.07254851 0.75136775 -0.39927462 -0.05548006 -0.4212015 -0.12194521 0.17846008 0.4692175 -0.25184825 0.7570824 -0.17853718 0.12748773 -0.026630122 0.03808851 -0.21973199 -0.45075226 0.26379165 0.014167049 0.18800135 0.16559736 -0.008225737 0.5848693 0.021742519 -0.30108002 -0.3915697 -0.15231626 -0.27108854 -0.38419554 0.528183 -0.21198852 0.079629235 -0.15059538 -0.23178057 0.15078457 -0.11093251 -0.12042956 -0.30791226 -0.1111481 -0.4313731 0.014245909 0.11418329 -0.7230362 -0.053116787 -0.31292588
164 0.81977665 -0.42342603 -0.46622407 -0.44709846 -0.29600546 0.124218605 0.084627606 -0.33798262 -0.24001284 0.85674804 0.58585775 -0.06877594 0.045040354 0.023235159 -0.10686007 1.1751198 -0.08879076 0.024125068 0.2878642 0.4408305 0.2609961 -0.6698693 0.022825183 -0.526318 -1.1138135 -0.29024664 0.43249843 0.63500303 -0.27672127 0.27222252 -0.29120716 -0.3937325 -0.6249554 0.17156905 -0.06699726 -0.5224118 0.22027867 0.93200195 -0.49928162 0.5146207 0.33862573 0.422636 0.38714325 0.93379796 -0.39149994 -0.5043212 -0.3718418 0.08951886 -0.47505867 0.59474003 -0.33805296 -0.28385186 -0.13146557 -0.059089005 -0.17011243 -0.36266392 0.42733023 -0.4912263 0.32503676 0.64886487 0.18990038 0.14913075 -0.10928775 -0.96956515
181 -0.34897667 -0.70277643 0.47527173 -0.6245716 -0.54871845 -0.040308114 -0.18913841 0.4241205 0.5182953 0.4151433 -0.13811693 0.37953717 -0.62421125 0.23316924 -0.5627916 0.78428024 0.42547703 -0.81284136 -0.50553197 -0.7661035 0.656437 0.96075255 0.6373678 -0.04527729 -0.7452489 0.31076992 -0.18729617 0.24681948 0.25691494 0.6278951 0.103459105 0.6766104 -0.7493199 0.2782739 -0.43400067 -0.2277687 0.12625933 -0.005404514 -0.0028210909 0.819109 -0.36994013 0.90460503 0.32833853 0.22652663 -0.4496444 -0.14009607 -0.13319747 0.816796 0.543944 -0.67536193 -1.2778136 -0.09030748 0.15555617 -0.9074675 0.49039838 0.48591548 0.20899229 0.18530501 0.2779685 0.53380954 -0.24658641 0.0804946 -0.38836715 -0.20914647
142 0.9027389 0.50202674 -0.24133587 0.2284229 0.36884058 0.17630991 0.5249178 0.18515004 0.38693267 0.55495334 0.32625502 -0.6260298 0.12845436 0.6148405 0.34223208 0.09753081 -0.41715795 -0.07519169 -0.59050524 -0.37574393 0.022375554 0.09441024 0.29755816 0.21631205 -1.144115 -0.43194655 -0.60755557 -0.05265765 0.33145165 0.23493879 -0.5521846 -0.07377777 -1.333537 -0.10289746 0.3295555 -0.5893036 0.266298 0.39504522 0.3773148 0.5835218 0.5267482 0.9082323 -0.14004143 0.09177284 -0.07005399 -0.40401694 -0.72891504 -0.30995882 0.69814533 -0.23468593 -0.8210182 -0.23066156 -0.2920316 -0.6522909 0.21316431 -0.041602205 0.31827223 -0.19908297 0.021266142 -0.061138447 -0.7401055 -0.2679234 -0.26872063 0.24070866
111 0.13676801 0.9112529 -0.024003109 -0.81855744 -0.20605576 0.010451526 0.10680848 0.21795091 0.46321544 0.55155766 0.29668948 0.5223164 0.13404764 0.07747594 0.53974736 -0.070831284 -0.76064485 -0.17119779 0.14344606 0.5424914 0.3595263 -0.052615043 0.5103083 -0.26062393 0.21311024 -0.2383659 0.16639127 -0.02435314 -0.10198129 0.18987162 -0.66883206 -0.011180815 -0.37495828 -0.70269054 -0.2942794 -0.63560164 0.31616896 -0.09366606 0.070311286 0.39133865 0.30802393 0.8583891 0.090279855 -0.21610178 -0.86105496 -0.751436 0.6773689 -0.17717782 0.21632037 -0.4413845 -0.3314831 -0.24118191 0.51918346 -0.84232736 0.075030014 -0.08324344 0.14686684 0.18112232 -0.4753012 0.014330793 0.73086166 -0.72763795 -0.050570972 -0.2432894
252 0.43291375 0.7963061 -0.391655 -0.44046938 -0.44003847 0.9415281 0.8167272 0.035298508 0.39349023 -0.146049 -0.048399795 0.9006577 0.12837572 0.59206545 -0.72869706 0.13874732 -0.58379364 -0.43181098 0.2958022 0.8074526 0.23675446 0.16338545 1.0166712 -0.6021817 -0.5257173 -0.06454495 0.73332864 0.42865872 0.12559542 0.39492965 -0.62309766 -0.1669455 -0.8531415 0.1379186 -0.37890035 -0.13068192 0.2995163 0.7086254 0.0227049 -0.32027623 -0.024361417 0.5234171 0.091747805 0.26663318 -0.13300203 -0.3044592 -0.02106011 0.06369447 0.4930138 0.5313888 0.038325533 -0.6290377 0.010975109 -0.8255244 -0.17683342 0.2264955 0.008194034 0.17149666 0.010372798 0.48800665 -0.09853887 -1.0035473 0.36091897 -0.58841026
119 0.44236395 0.17530654 0.27829903 -0.49985754 -0.505441 0.8177078 -0.05621213 -0.407469 -0.35916993 0.062018227 0.32093734 0.031752206 -0.30331138 -0.3727593 -0.8178952 0.810237 0.12539665 0.11350898 -0.19037259 0.34012678 0.028452745 -0.4004104 0.67291814 -0.9003271 -0.46742827 -0.5578456 0.26657218 0.26028064 -0.5220302 -0.20694798 -1.0463554 -0.57360256 -0.35874936 -0.4701496 0.04060081 -0.20778629 1.3140053 0.52920145 -0.0067371745 0.062407874 0.5912683 0.64144623 -0.2142386 0.5419098 -0.09406734 -0.54995084 -0.42934412 -0.8962469 0.1342796 -0.17131083 -0.1520872 -0.060468357 -0.08719824 -1.1851085 -0.2535652 0.20980604 -0.20963733 0.29712966 -0.56009454 0.36865345 -0.046101 -0.42192873 -0.15598147 0.2340429
183 -0.12054693 -0.70658684 0.58923435 -0.6280109 -0.47951362 -0.23250523 -0.24896304 0.27116472 0.390715 0.44444576 -0.16500673 0.32915854 -0.75693816 0.16741945 -0.45521006 0.7299577 0.7800022 -0.8668665 -0.5079685 -0.4756739 0.38576257 1.0893413 0.7032162 -0.17560448 -0.6260473 0.18838233 -0.09619511 0.3665191 0.1322833 0.75927025 -0.12833643 0.6863482 -0.54178846 0.34530905 -0.3646149 -0.062770166 0.13385396 -0.01182873 -0.19836685 0.78127277 -0.24755046 0.99713147 0.3504234 0.0753024 -0.28878573 -0.02861546 -0.050303996 0.72542804 0.6276584 -0.66075355 -1.332343 -0.0017321078 0.044256832 -0.8787834 0.40740955 0.3037316 0.21968663 0.29973632 0.21104977 0.48574644 -0.32986054 0.3125209 -0.455619 0.009546587
208 0.56583744 -0.3285919 0.2395898 -0.3192657 0.060112074 0.5158193 0.30115265 0.0035330644 -0.4467795 0.23574479 0.0055722445 -0.22765288 0.08796072 0.687045 0.5261014 0.23765904 -0.3984018 -0.75639284 -0.031891305 0.1684125 0.7743642 0.5146744 -0.17684475 -1.0290061 -0.36890635 0.41620332 0.22868542 0.16948609 -0.6778795 0.1344634 0.33933356 0.32134715 -0.38301903 -0.8411585 -0.68030596 -0.09276078 0.11873567 -0.028996032 -0.47702655 0.028675413 0.39500314 0.18070799 0.41217333 -0.18644238 -0.42762828 -0.46398982 -0.4877713 0.46178544 0.5961573 -0.7036952 -0.32504797 -0.19087322 0.080895655 0.09358601 -0.096868604 0.6849161 0.21531446 -0.40979186 -0.196103 -0.81756663 -0.19654703 -0.06980666 -0.16644393 0.104375
16 0.43157315 -0.3603461 -0.039763294 -0.5691352 -0.25045338 0.18113267 0.31111923 0.17303078 0.41845357 0.43552858 -0.23385133 0.08602832 0.74908435 0.41918582 0.020450823 0.8006301 0.023837656 -0.3905056 -0.84393245 -0.31453097 -0.032708764 0.6262237 -0.34477025 -0.14021984 -0.2042444 -0.08295017 -0.021341363 0.6827802 -0.31094554 0.77998644 -0.3211869 0.08034688 -0.043636177 -0.047416385 -0.26190624 -0.461685 0.30169168 0.27541637 0.12598261 0.30232733 -0.123847686 0.6161373 0.010719254 -0.15876856 -0.45287174 -0.14851022 -0.1791143 -0.25138405 0.40245765 -0.29923937 0.094023585 -0.256767 -0.4499234 0.08945288 -0.14909026 0.14409617 -0.2581434 -0.043391436 -0.46547526 -0.10765496 0.14822662 -0.40896726 -0.10545356 -0.24796402
178 0.7423196 0.5465163 -0.45164478 0.22710717 0.43173718 0.13474591 0.6305194 0.1771044 0.27478647 0.6468982 0.45470878 -0.49526024 0.096390285 0.6190586 0.2729954 -0.042569295 -0.36204177 -0.11403528 -0.5200274 -0.43212953 0.01131979 0.29152796 0.24581636 0.2815108 -1.0429949 -0.4488871 -0.7796039 0.16945833 0.24065375 0.15680797 -0.40028158 -0.13284248 -1.1288735 0.3187187 0.29498884 -0.48978305 0.12549767 0.6063103 0.12279226 0.7376923 0.6859878 0.87477183 -0.22269958 0.074959286 -0.08539541 -0.507824 -0.8341316 -0.15014534 0.77935976 -0.29797217 -0.7701136 -0.31971794 -0.20749094 -0.68056387 0.26750758 0.072283655 0.1598892 -0.19697645 0.06493571 -0.18562771 -0.86377746 -0.6217687 -0.16542393 0.18855163
177 -0.53440505 0.07398567 -0.18991035 -0.20132698 -0.43930137 0.039950464 0.37517774 0.37308022 0.22510678 0.5018167 -0.70086616 0.85357034 -0.5425537 0.5269461 -0.19857582 1.1890628 -0.16995198 -0.7811789 -0.10532734 -0.12230346 0.08442013 0.90496427 0.49429002 -0.24958426 -1.0665904 -0.18239002 0.13531764 0.3406445 -0.547278 0.49414542 0.29641593 1.0564438 -1.0253688 0.109735034 -0.48797026 -0.476483 -0.36284307 0.008366955 -0.11562226 0.59428906 -0.3034844 0.7975688 0.27236 0.4879026 -0.0021402224 0.2972557 0.256583 0.7869969 0.57583207 -0.07491966 -0.52448195 -0.012096968 -0.51999515 -0.62533146 0.29588014 0.26197198 -0.13251245 -0.10545781 0.39916554 0.29276562 0.07424267 0.109763406 -0.08034312 -0.82112837
267 -0.2320388 -0.7673669 0.1480758 -0.41597122 -0.11843507 0.3906027 0.54408765 -0.045344446 0.14001197 0.06488999 0.735584 0.23757677 -0.15121011 0.19557232 -0.46599028 0.7364635 -0.033573244 -0.26796106 -0.6530377 -0.5086996 0.31074032 0.06372901 -0.19068407 -0.35892078 -0.5858223 -0.055682518 -0.21624206 -0.0953564 -0.8600592 0.7228026 -0.27890733 -0.329811 -0.5245593 -0.47618613 0.12485083 -0.22401391 0.148807 -0.07629471 -0.33100802 0.19888136 0.3922963 0.10160549 0.15189241 0.4229022 0.17899308 0.5656758 -0.12354048 -0.112776086 0.26347214 -0.17062785 -0.39536864 -0.18966874 -0.28687555 -0.58879644 0.05376919 -0.062449865 -0.34017918 -0.65896004 -0.5967035 -0.24029882 0.3392562 0.18570726 -0.076604925 0.49523664
218 0.005570111 0.2680342 -0.19087178 -0.3342777 -0.21482041 0.64615124 0.022617603 0.32569554 0.15134107 0.26325873 -0.14927016 -0.28785783 -0.2059093 0.21901852 -0.19395748 0.60518503 -0.61394054 -0.60048413 -0.64707494 0.08391705 0.34783298 0.18189883 0.47072124 -0.062274233 -0.80277395 0.27906865 0.27858692 0.65185153 0.09770813 0.29524344 0.19129786 -0.70692456 -0.5535669 -0.21990155 0.19015062 -0.2684651 0.9288372 0.58200353 -0.38085017 0.0807285 0.005621928 0.30680284 0.14872782 0.33294424 -0.3625748 -0.05946986 -0.11868969 -0.5391105 0.5580784 -0.064500935 -0.097062014 0.01703339 1.0529644 -0.46695903 -0.3987441 -0.0666695 -0.2794915 0.3691167 0.053005427 0.048210952 0.4159134 -0.28340706 0.62534386 0.021282224
216 -0.012044589 0.5825454 -0.19828095 -0.4434143 -0.28625524 0.5200951 0.07861091 0.23548733 0.14408393 0.37468654 0.019025762 -0.46287516 -0.09264002 0.5417589 -0.34800225 0.48065254 -0.87324625 -0.6325541 -0.545159 0.1579621 0.2024281 0.305726 0.6341358 -0.24412893 -0.6695473 0.25361997 -0.113551065 0.7143492 0.028952917 0.19103977 -0.0010895762 -0.73118937 -0.58652097 -0.21112634 0.38766944 -0.36706603 0.98623705 0.6715849 -0.42289796 -0.07812736 0.034618676 0.1183614 -0.082383715 0.24444495 -0.3308381 -0.3271894 -0.069519944 -0.62646157 0.48711008 0.054770634 -0.010086586 -0.12920797 0.9559945 -0.5868542 -0.5621793 0.20790899 -0.42411202 0.3346869 0.04359091 0.053802345 0.39610896 -0.11144749 0.6199828 -0.13081326
287 -0.26648736 -0.8062899 0.2975866 -0.593116 -0.13724427 0.4167967 0.5840402 -0.12539802 0.23416285 -0.07807605 0.6691873 0.2923213 -0.06405834 0.0662437 -0.4530274 0.8282663 0.21447088 -0.045229398 -0.7761533 -0.3145911 0.3319219 -0.017692205 -0.29770637 -0.594043 -0.584615 -0.0826811 -0.33712283 -0.118457325 -1.0133384 0.50240624 -0.13384701 -0.34659687 -0.5435167 -0.41308105 0.15773608 -0.114981316 0.08827581 0.13405174 -0.34983242 0.18862174 0.38100523 0.27627793 0.17335542 0.5974708 0.06471591 0.49893048 -0.23167755 -0.15123717 0.16110101 -0.19338642 -0.47583 0.021808805 -0.39970747 -0.53411716 0.049555164 0.11167752 -0.3465546 -0.5419897 -0.51937777 -0.14027405 0.41861546 0.1484935 0.017079368 0.6736578
262 0.1101552 0.10232859 -0.07934014 -0.598709 0.8702463 0.3635461 -0.002140923 -0.0282712 0.21459438 0.32162818 0.5949805 -0.035110425 -0.34565014 0.29244906 -0.31710845 0.74115205 0.024831502 -0.6961404 0.02133694 -0.09059242 -0.06835651 0.3656515 0.09435043 0.3496011 -0.25113806 0.20189427 -0.12316553 -0.2616912 -0.53790253 1.0879042 -0.16450043 0.37305117 -0.5025521 -0.53761715 -0.1918793 0.029498516 0.22496146 0.27674547 -0.22149521 0.2710981 0.16498877 0.9320423 -0.09323312 -0.048413016 -0.5459624 0.1090455 -0.48883998 -0.19841708 0.2627035 -0.17048086 -0.41267604 0.0107725095 -0.07067778 0.0070156795 -0.14829668 0.4103664 -0.19207509 0.064252034 -0.024646921 -0.26959264 0.073939815 -0.2956642 0.46223018 -0.44237462
202 0.20770533 -0.23370188 -0.05635574 -0.7560082 -0.2993815 0.29295346 0.19426623 0.21321908 0.28202876 0.4571168 -0.18546574 -0.021238904 0.5602317 0.3474305 -0.15839551 0.6841552 -0.07188212 -0.35130963 -0.78185856 -0.44518796 0.073571846 0.4942285 -0.3809078 -0.14290701 -0.102573074 -0.052749097 -0.16129044 0.88344043 -0.11874745 0.71917295 -0.19493131 0.048665337 -0.20888293 -0.13536529 -0.3020236 -0.50042945 0.3824823 0.24503452 0.3707715 0.5258108 -0.11618051 0.6757662 0.095032975 -0.09723164 -0.6265313 -0.13602738 -0.06811822 -0.24529754 0.3435576 -0.30513823 0.16203597 -0.38288966 -0.6586524 0.13511632 -0.1973355 0.13626373 -0.16832258 -0.07855877 -0.33293495 -0.2664782 0.20495716 -0.37769163 -0.16879906 0.0040685884
175 -0.78321445 -0.12938572 -0.21406688 -0.46558696 -0.45785335 0.13570604 0.5252717 0.37546748 0.23797663 0.5064415 -0.6213182 0.6021564 -0.40986863 0.35849676 -0.25551715 0.89179665 -0.34438935 -0.8670624 -0.03696007 -0.0883596 0.04840526 1.0499263 0.6347395 -0.2836526 -1.2424544 -0.40392768 0.48218927 0.2575324 -0.5430088 0.48249388 0.20654294 0.7856683 -1.1160107 -0.019588085 -0.40697774 -0.39323547 -0.4475928 0.16938075 0.09868614 0.4077719 -0.38005283 0.91830677 0.30924046 0.008494022 -0.1714513 0.44385266 0.22820882 0.79781425 0.48117113 0.2223116 -0.3124952 0.35647386 -0.5601186 -0.52718854 0.17139652 0.36301008 0.14665435 -0.29768 0.21817441 0.37821114 0.20077346 0.10898618 -0.24517705 -0.7551647
122 -0.67933613 0.32739615 -0.79793346 -0.42582443 -0.69347394 1.0346339 -0.1387201 0.25236633 0.018051963 0.12278847 0.5195324 0.43678623 -0.29142964 0.3936623 -0.7287542 0.7899772 0.6362605 0.0683525 0.17786966 0.62455875 0.53807133 0.016868303 0.32659522 -0.54466325 -0.52914375 -0.7364882 0.33233273 0.87761056 -1.1730477 0.093736894 -0.10739822 -0.5532878 0.13748053 0.14512166 -0.42067912 -0.5545276 -0.4163063 -0.06453263 -0.77730775 0.771454 -0.21260193 0.16990665 0.30303743 0.443433 -0.23895164 -0.20457177 -0.3386979 0.15440468 0.6824168 0.07488256 -0.054858323 0.37905887 0.32155177 -0.06560576 -0.57967466 0.6191686 -0.17168848 -0.2690141 -0.23452595 0.11786466 0.6754209 -0.71556896 -0.20732966 -0.77304476
25 0.71820474 0.70958495 -0.3218383 0.2942943 0.292166 0.32070205 0.6195619 0.24932183 0.24644655 0.50545406 0.37736264 -0.3375954 0.14696027 0.6602384 0.23143171 0.07274066 -0.22692621 0.00071410363 -0.59005624 -0.30908903 -0.045814183 0.32838547 0.29575217 0.5603318 -0.9667815 -0.6627343 -0.52048147 0.14424723 0.106566586 0.27033877 -0.17479499 -0.057887036 -0.92957455 0.32229334 0.23828587 -0.5706497 -0.13765492 0.7192789 0.096432224 0.8356035 0.94259965 1.039992 -0.1929527 0.03258499 0.098378725 -0.26649234 -0.85017693 -0.07182178 0.8453628 -0.39301172 -0.7689343 -0.42802235 -0.12668382 -0.6871519 0.20508704 0.050300896 0.1251133 -0.17473492 -0.058093037 -0.24646202 -0.9615319 -0.48324564 -0.23499583 0.091855176
210 0.029643157 0.18910925 -0.1179709 -0.663136 0.7222967 0.23981704 0.00067361403 0.036023565 0.27135578 0.31247878 0.5674871 -0.21226619 -0.19969544 0.3554211 -0.25098017 1.0394547 0.08085741 -0.7193811 -0.05757415 -0.21166484 0.09075592 0.3273248 0.07220031 0.39083728 -0.13937584 0.11016164 -0.04213854 -0.2805797 -0.527884 0.9553897 -0.1479882 0.37874272 -0.477347 -0.5589984 -0.06748156 0.18039867 0.27851385 0.39015728 -0.39012465 0.1049472 0.0034976462 0.8575328 -0.06411852 -0.10089182 -0.5033782 0.055373125 -0.51442677 -0.31277853 0.3177497 -0.15176524 -0.28030932 -0.022782536 -0.19716784 -0.104679 0.008547766 0.35604334 -0.0012264255 0.19594285 0.047178283 -0.2726456 0.1299688 -0.24288793 0.40834028 -0.4726255
166 0.36524418 -0.14466958 0.12728985 -0.57261217 -0.47717965 0.37165645 0.40302318 0.38442063 -0.35362327 -0.1641598 0.059066758 -0.34407783 0.073718145 0.75049704 -0.22301497 0.30486637 -0.34612316 -0.29685342 -0.49781606 -0.032869358 0.3590418 0.5661682 -0.15218209 -0.12103761 -0.3659611 -0.15481697 0.066220954 0.52048403 -0.40944186 0.14114565 -0.15583791 0.932417 -0.47686356 -0.8860828 -0.007642225 0.2156091 0.3675463 0.30189005 -0.21122636 -0.109626934 0.78320765 0.023622347 0.3853486 0.37603906 -0.795813 -0.3760306 -0.6553419 0.85696334 0.71957344 -0.40404284 -0.39096338 0.25485885 0.03622975 -0.5045623 0.20196317 -0.042893488 0.19069405 -0.052539896 -0.5198362 -0.39620084 0.22728167 -0.028541217 -0.26326036 -0.22422108
274 -0.51806164 -0.18039802 0.00025035284 -0.69071674 -0.19415611 0.090876915 0.7760326 0.62982094 0.2196163 0.45899177 -0.56514806 0.68509066 -0.2326637 0.33641556 -0.46793625 1.0567833 -0.400248 -0.81075615 0.06099094 -0.022039384 0.13041313 0.8258577 0.8313186 -0.36403114 -1.3631237 -0.52096915 0.47015792 0.22203445 -0.17083554 0.39855617 0.0630739 0.6621244 -0.9980892 -0.16725503 -0.62767845 -0.28164813 -0.40520024 0.3603769 0.034844793 0.41787866 -0.698228 0.59501153 0.42151904 -0.17885147 -0.3749838 0.48901978 0.28331584 0.8019673 0.55799824 0.46665144 -0.31059784 0.5147433 -0.4155468 -0.53497744 0.14231694 0.4246464 0.50924855 -0.32649857 0.10884469 0.42981374 0.4603192 -0.0944493 -0.18035367 -0.40874708
33 -0.43917096 -0.71962905 0.3652429 -0.8308297 -0.453403 -0.1395618 0.015524834 0.4898326 0.47529212 0.4173392 -0.2068697 0.59754974 -0.6188088 0.30787176 -0.6902285 0.7895474 0.22787197 -0.6616789 -0.3782357 -0.722181 0.8414824 0.7436156 0.8277577 -0.06363462 -0.85832787 0.5030889 -0.03627778 0.48789793 0.15474854 0.6909724 0.13960984 0.72900385 -0.93103087 0.37360996 -0.24870397 -0.16079238 0.3288243 0.02268579 0.01603694 0.668894 -0.22711883 0.7961979 0.308505 0.3794627 -0.1989588 0.028776499 -0.2767554 0.79656017 0.4970709 -0.7603218 -1.1504738 -0.32927838 -0.04065088 -0.9834443 0.48962867 0.6864948 0.0594299 0.11543546 0.37684882 0.43003285 -0.31887913 -0.14971681 -0.55833566 -0.40923262
63 0.3174042 -0.10168991 0.046172388 -0.7625277 -0.4484637 0.3350988 0.33966604 0.22273079 0.31114417 0.32150242 -0.23489381 0.0423433 0.5556713 0.40340862 -0.03976738 0.7379546 -0.1325372 -0.10514457 -0.6662711 -0.25118852 0.18056567 0.53279275 -0.4529904 -0.24612638 -0.066935554 -0.011067584 -0.38582036 0.8822699 -0.15337452 0.657628 -0.11005733 -0.06850612 -0.32341945 0.0041655856 -0.29370174 -0.67006004 0.40643317 0.2855479 0.32143384 0.48564565 -0.25081182 0.73037034 0.2178166 -0.05372806 -0.6196957 -0.0533431 -0.03421546 -0.15425332 0.48005188 -0.2219287 0.12482064 -0.37778828 -0.6649042 0.14713562 -0.14251357 0.23040758 -0.16199462 -0.032558292 -0.32815903 -0.1772576 0.15338564 -0.18940201 -0.2969617 0.21169324
82 -0.17870127 -0.23115118 -0.09382942 -0.5442783 -0.05986234 0.19620994 0.89802617 0.84190077 0.41496536 0.43044603 -0.4372642 0.7882744 -0.049666114 0.15091594 -0.52383864 0.8579047 -0.5281309 -0.90909135 0.025607366 -0.18484011 0.13208017 0.86453235 1.0661812 -0.5604436 -1.2487546 -0.29916862 0.45357674 0.2652386 -0.006661782 0.050526414 -0.18798828 0.6335473 -1.1583464 -0.16346556 -0.4603317 -0.2919101 -0.2809291 0.28277883 -0.16632397 0.41142264 -0.67481196 0.5778651 0.41827226 -0.20165579 -0.46808684 0.5979743 0.24316105 0.83559734 0.5223315 0.7817184 -0.5351914 0.35865209 -0.23854896 -0.5529375 0.11278285 0.37577227 0.43727428 -0.37329775 0.10484325 0.27520406 0.7806252 -0.6687888 -0.18228142 -0.20347117
179 -0.5523251 -0.4098256 -0.039706714 -0.3026433 -0.60898924 -0.057739004 -0.04837 0.13398579 0.19580857 0.34824708 -0.5246614 0.7382394 -0.33148155 0.724801 -0.1098211 1.1128913 -0.029025553 -0.4125476 -0.20323423 -0.23577291 0.44188038 0.6389878 0.50406915 -0.07870634 -1.1026605 0.36502418 0.17403612 -0.0018209008 -0.36229843 0.34585196 0.46469498 1.2879142 -1.1089526 0.5138695 -0.6846008 -0.26948237 -0.02671632 -0.28455928 -0.07772344 0.32903793 -0.070571296 1.0011151 0.22212557 0.7590952 0.04040633 -0.053358294 0.36663556 0.33097798 0.76380384 -0.22500552 -0.80046695 -0.37808287 -0.50277156 -0.6757497 0.66515726 0.6499201 -0.3643753 -0.12282323 0.13149072 0.54904693 -0.24792685 -0.069120035 0.08803193 -0.54408383
64 -0.2893812 -0.93132305 0.4110632 -0.5291742 -0.28409413 0.15175535 0.35342437 -0.20365827 0.1553129 0.20068705 0.8338784 0.3284982 -0.12769163 0.0332789 -0.571486 0.69266796 0.18162034 -0.22923382 -0.88083786 -0.19717863 0.0454952 0.028244551 -0.17320907 -0.6462036 -0.7176733 -0.10872723 -0.36152628 -0.2491092 -1.3061197 0.39959073 -0.20286497 -0.4849321 -0.36447102 -0.4970465 0.411737 -0.051991764 0.13001734 0.09873737 -0.5419367 0.19779916 0.46172643 0.31943786 0.2111778 0.68773973 0.05583894 0.36210272 -0.33748913 -0.13658917 -0.018417137 -0.32939333 -0.45977905 0.16401 -0.21489811 -0.46498606 -0.12962481 0.09620941 -0.5665185 -0.39423898 -0.6602399 -0.13770057 0.43484375 0.21953371 -0.08508857 0.51463485
211 -0.07928034 0.054862354 -0.030661993 -0.6964102 0.63610476 0.1649979 -0.07969916 -0.10273337 0.13382582 0.31730974 0.58254194 -0.3067574 -0.16373973 0.3859381 -0.18154866 1.0555235 0.094293244 -0.9037506 0.047132526 -0.36546558 0.047986884 0.3890317 0.067055985 0.24263366 -0.05075687 0.21679337 -9.006281e-05 -0.23671651 -0.49615017 0.7236104 -0.26012164 0.20302519 -0.7177828 -0.42549434 -0.0048299013 0.19463253 0.17820495 0.46703726 -0.34543768 0.17901243 0.07041728 0.777404 -0.051526643 -0.20963715 -0.6198584 0.13910475 -0.37110382 -0.41174823 0.40130782 -0.1691139 -0.11086943 -0.17179616 -0.17011695 -0.10003178 0.22769287 0.45115528 0.040921375 0.15220094 -0.0041822917 -0.2984259 0.12863338 -0.3875162 0.30698806 -0.55353004
248 0.68548834 0.7765803 -0.2063329 -0.009217975 0.38873112 0.374861 0.56174296 0.331321 0.26328573 0.33037886 0.102603026 -0.17439413 0.20662206 0.8179416 0.19511381 0.0067902934 -0.2177748 0.16548175 -0.6638835 -0.42877614 0.1524694 0.17063883 0.28293425 0.7105759 -0.8118643 -0.87537247 -0.7155122 0.52202153 -0.10081725 0.26613662 0.042588014 0.03330794 -0.8529598 0.32516706 0.2845157 -0.4670235 -0.31163028 0.63680583 -0.18736094 0.69396025 1.0618289 0.8899569 -0.33735377 0.17589372 -0.010334804 -0.35323048 -0.84577674 -0.014381825 0.90218014 -0.38080567 -0.812331 -0.40736148 -0.25765386 -0.8642896 0.39863524 0.12969734 0.11992689 -0.06655158 -0.13465253 -0.31195056 -0.9937395 -0.5813415 -0.17243914 -0.017049877
251 0.63840276 -0.47694167 0.6419543 -0.083381414 -0.6495991 1.0170935 0.6754917 0.07791874 0.19203798 1.022926 0.36040562 -0.3049874 0.07354739 0.834415 0.48067975 -0.39457723 0.34552765 0.016995044 0.7051169 -0.20332861 0.44029525 0.6979965 0.5184273 -0.47956228 -0.27950096 0.43218303 0.359548 0.58844 -0.5520821 0.354357 -0.20396134 0.03719523 -0.3135398 -0.95523936 0.38118932 -0.442441 0.8275626 0.61793506 -0.5960097 0.10397687 0.0082301125 0.06908852 0.4288011 -0.3685475 -0.9224229 0.52306217 -0.3767032 0.24736015 0.60504556 -0.6499279 -0.41778687 -0.15863301 -0.7412719 -0.3164664 0.18387593 0.12742563 0.008808723 0.0072445637 0.33079773 -1.260377 0.045565926 -0.4067006 0.3068173 -0.2775493
92 -0.1124691 0.3866715 0.6439938 -0.3492293 0.18499161 0.093379065 0.0756538 0.6231025 -0.3160261 0.76406056 0.29354987 0.5388432 -0.538999 0.16535765 0.5084917 0.738011 -0.5130779 -0.36624676 -0.24921145 0.19007933 -0.074525915 0.4579777 -0.7227065 -0.38531277 -0.5938839 -0.45658347 -0.021747746 0.34500194 -0.34814155 0.3837264 -0.29133227 -0.39134288 -0.54187137 -0.26968703 0.29907 0.21132986 -0.09575038 0.6626079 -0.58046514 -0.47961298 -0.19838184 0.5557937 -0.27190566 0.07783063 -0.5586971 0.069076054 0.18138401 0.6483876 0.9142326 -1.2666363 -0.71153885 -0.09091604 0.12889655 0.39920357 -0.70853055 -0.6004521 -0.0023354217 -0.5068488 0.35727 -0.6058605 -0.11470302 -0.020459825 -0.1831611 0.29074308
159 -0.37838215 -0.9079463 0.48487014 -0.6753764 -0.24034865 0.23915988 0.18298595 -0.35022995 -0.026946517 0.16701004 0.81674904 0.07668758 -0.28692436 -0.15522109 -0.65338814 0.97396576 0.006600715 -0.0697385 -1.1147087 -0.09210118 0.0016350559 0.0098223975 -0.16623062 -0.8677174 -0.64917856 -0.46485147 -0.2709318 -0.38357177 -1.3909447 0.29951176 -0.13706826 -0.5740298 -0.41108295 -0.67422926 0.36314544 -0.176846 0.036910303 0.13003643 -0.43499896 0.08450887 0.50267667 0.36961603 0.49654207 0.7743893 -0.21568613 0.45900545 -0.1984833 -0.26993203 -0.03064596 -0.1287664 -0.65229565 0.3638404 -0.17394497 -0.4606874 -0.15466098 0.06866921 -0.48457876 -0.32745272 -0.6363187 0.07818235 0.7489605 0.462534 0.034152683 0.37114337
36 0.013147867 -0.07806912 0.21807052 -1.2088358 -0.6616697 -0.24219503 0.18722339 -0.7552862 -0.11896492 0.124068156 0.27746314 -0.04716377 0.25151673 0.10063573 -0.36714485 0.16228281 0.10828375 0.06441208 0.1767154 0.18970934 0.090152815 0.33700392 -1.0402368 0.037515502 -1.095709 0.47778097 0.38458684 0.12968035 -0.9088936 0.09124352 -0.44091687 0.26209477 -0.48252034 -0.69916296 0.024881236 -0.80089337 -0.26664582 0.37645525 -0.037841048 0.26454413 -0.4791858 1.2345386 0.46599305 0.21746898 -0.06656277 -0.19782884 -0.020178828 -0.43611157 0.85578525 -0.9624412 0.34014153 -0.122250535 0.40874243 -0.87149024 0.30046266 0.038172524 0.54102445 0.2664779 0.060395952 0.7917143 0.5860341 -0.56914544 0.5718131 -0.66100454
17 0.23614234 -0.1092281 0.104688846 -0.8126523 -0.53985137 0.2358145 0.29522654 0.13282822 0.32383573 0.38223767 -0.107915394 0.13179573 0.5031325 0.15976094 -0.064454965 0.48514697 -0.21114664 -0.19221543 -0.65069884 -0.13202246 0.13059992 0.721033 -0.4417056 -0.20334965 -0.24480578 -0.09871779 -0.30672538 1.0085194 -0.038817495 0.5682562 -0.14199938 -0.12541509 -0.38819662 0.080561526 -0.5214612 -0.7415541 0.46227336 0.32712528 0.23459506 0.5252178 -0.14108126 0.76498616 0.31186408 0.0014902735 -0.6001015 -0.035521057 -0.020987123 -0.042320922 0.5365636 -0.19868262 0.21102199 -0.36314934 -0.65797085 0.24697849 -0.14875296 0.026909793 -0.18811715 -0.12779436 -0.43870416 -0.29989338 -0.0460087 -0.059842028 -0.44830343 0.36293834
85 0.6483518 -0.4924139 0.5056217 -0.1505966 -0.7531701 0.9584016 0.7249589 0.26934567 -0.065223135 0.49566138 0.46383238 -0.46677902 -0.29233998 0.79670006 0.57770586 -0.614639 0.100558214 -0.19503948 0.4596655 -0.019971231 0.66772926 0.38200396 0.26246542 -0.535281 -0.48113135 0.31757376 0.05585233 0.49544838 -0.59300894 0.1662869 -0.22084646 0.082366 -0.30841863 -0.6982445 0.09667011 -0.29365832 0.570157 0.47807217 -0.4206515 0.024933087 -0.15942019 0.21938023 0.27341986 -0.0141787 -0.9288736 0.5598305 -0.6274071 0.43436316 0.41027874 -0.61189437 -0.48362848 -0.15347645 -0.39681444 -0.27428538 0.32923004 -0.07872586 0.0060992334 -0.06427232 0.13578852 -1.2001741 -0.23636673 -0.6433999 -0.048921857 -0.42991132
22 0.3087878 -0.035233945 0.20249811 -0.32057512 0.04410195 0.085590675 -0.31012303 -0.21134348 0.23801339 -0.44120726 0.77850246 0.68098116 -0.047358893 0.27543598 0.09953056 0.17508379 -0.42068037 -0.5561793 -0.9628056 -0.09726287 0.70242065 1.1162884 0.11472584 -0.09453087 -0.29731384 -0.19753072 0.07945775 0.08791597 -0.56411123 0.5491108 0.19042163 -0.17213032 -0.54860795 -0.07428015 -0.09593493 -0.6527789 -0.052677885 0.19696534 -0.30663818 0.08778034 0.2875528 0.30680957 0.29499093 0.41289842 -0.6024289 -0.06993507 -0.5198483 -0.61540174 0.16986008 -0.12877928 -0.26695526 -0.57956916 -0.14415684 -0.04677342 -0.06486988 0.18942933 0.47084865 0.27894667 0.025176372 -0.1413008 0.17794664 -0.15424854 -0.36458796 -0.059308346
70 0.31995732 0.33792335 0.0476633 -0.27928728 -0.4054274 0.22709343 0.32012415 0.022747414 0.16823184 0.7029415 0.32861304 0.14299144 -0.4498208 0.8121973 -1.1450799 0.6856087 -0.45451874 0.025001314 -0.3443701 0.42775124 0.3804744 0.51890326 0.0745034 -0.44588736 -0.76732534 -0.4126115 0.64798254 -0.27522674 -0.41842368 -0.46387097 -0.712944 -0.50109065 -0.88355696 -0.1779854 -0.16271302 -0.40815225 0.4123115 0.71862024 -0.36457825 0.6555599 -0.103393875 0.1915096 -0.65789896 0.91273016 -0.028600862 -0.6990162 -0.19018021 0.21241687 -0.29614824 0.49957955 0.54591715 0.3658039 0.3758793 -0.21895191 0.074145064 0.33177707 -0.24270393 0.2296584 -0.26390192 0.124956176 0.10816475 -0.93217975 0.086837955 0.050060984
182 0.53729874 0.6831616 -0.15625705 0.05646767 0.3967453 0.6036155 0.37606278 0.2246793 0.20931895 0.31990537 0.059310913 0.05832093 0.0054995026 0.65600556 0.2173043 -0.011269387 -0.093383186 -0.03678627 -0.692064 -0.62569964 0.16601343 0.091364205 0.4525895 0.64762086 -0.6418577 -0.97919077 -0.65758294 0.54455763 -0.3730285 0.24532847 -0.06281532 0.0059816074 -0.95594233 0.34080508 0.1866475 -0.5610809 -0.54368424 0.41895658 -0.30194643 0.7469437 0.99903244 0.88985336 -0.2444435 -0.03599393 -0.17058428 -0.34394255 -0.774857 0.030967174 0.9740803 -0.26056725 -0.6056649 -0.39035973 -0.06789885 -0.7579987 0.590012 0.054160368 0.02787034 -0.1519368 -0.52474815 -0.4729621 -1.2256507 -0.43207982 -0.22983131 -0.18200032
133 -0.9207249 -0.58455294 0.72576976 -0.5436939 -0.75533617 -0.2697832 -0.18474497 0.70955443 -0.10455455 0.8821926 -0.22700442 0.7643376 -0.6288205 0.56865203 0.6330431 0.3812535 0.06327305 0.2815119 -0.2736817 -0.41938102 -0.22556236 0.22074883 0.87210256 0.22295704 -0.8861 0.20431332 -0.43025348 -0.044396285 -0.80753106 1.0089839 -0.8971388 0.4112076 -0.6169112 -0.15731761 -0.85415125 -0.19692923 0.30482313 0.65567905 -0.012839443 -0.34337187 -0.9405301 0.7374981 -0.06823626 0.6241677 -0.8434944 0.53351814 0.3462234 -0.07783794 1.1197559 -0.13161743 -0.27170792 -0.10784055 0.20067392 -0.2824896 0.38402563 -0.16344883 0.043399278 -0.40893474 0.21229647 -0.2685439 0.13931839 0.22483307 0.41087392 -0.57410526
201 -0.03605245 0.112359926 0.025263391 -0.80430883 0.586112 0.2510365 -0.2573873 0.07211105 0.2051756 0.37607327 0.5226701 -0.13868415 -0.21962675 0.35672995 -0.22333771 1.1684091 -0.015660398 -0.8153081 -0.038786314 -0.33279398 0.08393892 0.24053937 -0.014933874 0.098564796 -0.21964829 0.32715806 -0.068854675 -0.24366474 -0.53540355 0.63193494 -0.09601195 0.21097231 -0.717663 -0.50965714 0.030168118 0.35760352 0.1333645 0.41736805 -0.33528635 0.12830342 0.08014289 0.6605184 -0.09250813 -0.39677757 -0.5271391 0.07467693 -0.38111934 -0.45406568 0.53286856 -0.052623473 -0.027885651 -0.29073003 -0.29753867 -0.081767045 0.4519202 0.3510735 0.1854691 0.18338987 -0.080237016 -0.2613302 0.06068239 -0.36380875 0.3535958 -0.5756416
169 0.78145385 -0.5770984 0.19976366 -0.29611972 -0.23622774 0.880339 0.82493794 0.10574399 -0.38376483 0.37276977 0.28609625 -0.69509345 0.06152854 0.7715647 0.44662774 -0.4464518 -0.037189197 -0.3747244 0.28143173 -0.23079447 0.85011005 0.33952758 -0.1882589 -0.8378541 -0.70724154 0.20302105 0.27269953 -0.09100641 -0.9470951 0.36162767 0.60501665 0.40108368 -0.31911176 -0.69038755 -0.055298343 -0.056188457 0.4945262 0.18399139 0.054175153 0.32313204 0.06150747 0.24794324 0.013372269 0.16247052 -0.6475517 -0.06903859 -0.22275133 0.6088051 0.38963303 -0.7637889 -0.41852376 -0.056481462 -0.3189597 -0.083009556 0.1283694 0.4148874 0.22448182 -0.16367555 0.123664744 -1.1442049 -0.049167246 -0.6644412 0.032276284 0.020369891
106 0.40722463 -0.26566648 0.11016208 -0.724165 -0.7075825 0.2569814 0.4181168 0.14843588 0.31183138 0.26943088 -0.13245676 0.33885974 0.42170194 0.16097802 -0.03209799 0.43374047 -0.40320253 0.25336057 -0.6143747 -0.08242665 0.08791957 0.84126633 -0.49010742 -0.20273533 -0.41111225 -0.18621236 -0.21104285 1.2053858 0.021415763 0.56478834 -0.18171889 -0.26988077 -0.51979303 0.077030286 -0.58671904 -0.74792737 0.3197077 0.2573123 0.14073794 0.50662905 -0.05052552 0.63184404 0.43686247 0.02218539 -0.6212924 -0.019859355 -0.05811605 0.08027638 0.7311107 -0.32454938 0.10338938 -0.44195792 -0.83031803 0.2732976 -0.032458507 -0.08702395 -0.18114856 -0.00996922 -0.36713955 -0.16840349 0.08140923 0.043221146 -0.431409 0.4046175
160 -0.39023647 -0.98852855 0.42184553 -0.7996102 -0.42622137 0.08453521 0.10648254 -0.36314887 -0.074163154 0.22758523 0.8148942 0.06274882 -0.33621693 -0.21168801 -0.82656944 0.94559944 -0.023009297 -0.27455133 -1.0988989 0.04655226 -0.05067044 -0.1447856 0.13152388 -0.97771096 -0.77364284 -0.7595823 -0.09032016 -0.57884496 -1.3281914 0.33845362 -0.22411582 -0.5205476 -0.5059538 -0.7235504 0.382805 -0.36253503 0.20586316 0.20156853 -0.37535983 0.23691362 0.42894727 0.5048311 0.5260239 0.6092162 -0.33197227 0.540253 -0.08197322 -0.26562685 0.032429386 0.027311778 -0.5978696 0.6817934 -0.316819 -0.33864257 -0.4963879 0.07107042 -0.41681647 -0.30075866 -0.554666 0.48401165 0.84526426 0.5191687 0.030221092 0.45312566
23 0.29424244 0.029345611 0.18947253 -0.29207158 0.0511498 0.21830614 -0.23005857 -0.0039597694 0.020019406 -0.29979283 0.82640314 0.6414234 -0.059984814 0.28848413 0.22651392 0.21344613 -0.35304236 -0.455949 -1.0570596 -0.054780908 0.8047687 1.1899394 0.016618002 -0.10281879 -0.43452397 -0.05288024 0.21019377 0.013924814 -0.5412819 0.61618495 0.1619425 -0.16865034 -0.30111918 -0.055978358 -0.062371243 -0.46229875 0.11129776 0.14616202 -0.3619746 0.016351968 0.33874136 0.5340999 0.3791416 0.24044387 -0.4429678 -0.18315245 -0.50952584 -0.5048252 0.092745386 -0.11017851 -0.24683042 -0.39183044 -0.06066141 -0.051670678 -0.117363155 0.35034028 0.52205616 0.090253025 0.1185464 -0.316996 0.11152454 -0.036693953 -0.30220947 -0.09563372
126 0.57819873 0.7229537 -0.14970174 0.18661591 0.5500647 0.51407737 0.34483746 0.077940136 0.34790388 0.42075393 -0.033805266 0.1732152 0.011246399 0.4091922 0.28134027 -0.001081825 0.18336833 -0.13531028 -0.82027125 -0.6815022 0.35485294 0.058814578 0.66375154 0.63506544 -0.5587601 -0.9999574 -0.44935435 0.6756577 -0.43721202 0.29890093 0.008410602 0.061619986 -0.85980666 0.25501502 0.08406189 -0.33378077 -0.7622723 0.5439072 -0.23727195 0.6705216 0.92662036 0.8127433 -0.27138466 0.1273924 -0.23552695 -0.33773243 -0.72073877 0.18750334 0.9915437 -0.33959654 -0.6567206 -0.262288 -0.1043337 -0.8939115 0.67656463 -0.1544515 0.117246516 0.0063894815 -0.7150156 -0.6528906 -1.088546 -0.5308958 -0.13651226 -0.05356898
234 -0.07282712 0.042776205 -0.2531045 -0.27940345 0.31591335 0.2780029 0.87169385 0.8645891 0.53180057 0.5913329 -0.38525912 0.8487056 0.15892063 0.24865639 -0.6669051 0.63391346 -0.6337137 -0.9079648 -0.20236556 -0.24054542 0.3317209 0.8942995 1.2106643 -0.57367307 -1.2127593 -0.26015458 0.19833288 0.33549044 0.13216637 -0.14958753 -0.35367665 0.5101053 -1.17879 -0.20107323 -0.4102382 -0.43852693 -0.26060942 0.55817926 -0.13934577 0.08253608 -0.46750632 0.45159522 0.528982 -0.005242862 -0.639981 0.7829634 0.29133102 0.6116691 0.2578435 0.7664341 -0.2621821 0.25552127 -0.14145486 -0.63704735 -0.034358636 0.6793796 0.4141013 -0.3529322 -0.025323998 0.20603576 0.7839908 -0.5996942 0.03265569 -0.08771321
115 0.17552894 0.14528824 -0.28337097 -1.3411994 -0.34475413 0.10382832 -0.45288694 -0.57334524 -0.56739974 1.4100837 0.24762824 0.8183001 -0.10648105 0.050890833 0.11949792 0.067777894 -0.76958245 0.16695935 0.25313783 -0.34956408 0.5074172 0.013980656 -0.70343095 -0.3296249 -0.74035406 -0.82860327 0.47930306 -0.366806 -0.21981028 0.7266963 -0.24996418 0.24385019 -0.06202036 0.022278713 -0.16627963 -0.5371143 0.320958 0.58488864 -0.6997744 0.92457914 0.17987598 1.1965554 0.7230358 -0.4627861 -0.11538988 -0.22289754 -0.72635514 0.16065753 0.046538595 -0.10033806 -0.27888387 -0.3663471 -0.32664722 -0.7382899 0.064893916 0.1441711 -0.42167562 0.76409185 -0.5897614 0.015483868 0.3959274 0.04702353 0.15260684 -0.3830463
1 0.23607361 0.55037034 -0.48858258 -0.075393155 -0.65382886 0.09057099 0.35888636 0.4220583 0.14544529 0.21590914 0.589134 0.7913579 0.26785627 0.13963749 -0.874382 0.47186667 0.43256837 -0.054782216 0.6549992 -0.14245248 -0.5240711 -0.04058616 -0.04981938 -0.94537354 -1.2990922 -0.29713473 0.3723513 0.18780085 -0.49331546 0.43480062 0.25961208 -0.9582523 -0.79969245 -0.035939008 -0.3640856 -0.14188772 0.7773957 0.8482005 -0.5117798 0.101513065 0.77364916 0.09006152 -0.33502916 0.7545788 -0.22134207 -0.5575412 -0.15795971 -0.224194 0.309413 0.46860853 0.16359104 0.5793809 0.19443877 -0.7625307 -0.0018339468 0.5316214 -0.22542371 0.4039675 0.0116208345 0.49461636 0.1571005 -0.79971117 -0.89131534 -0.6149636
61 -0.3765605 -0.9610909 -0.0069710654 -0.5432846 0.13096361 0.10108217 0.15782042 0.3202839 0.2318905 0.74141663 0.85883325 -0.20470393 0.23172429 -0.4744365 -0.8897481 0.6753672 -0.66427606 0.34785002 -1.1295319 0.6329279 -0.13016962 -0.1417642 -0.0178893 -0.46161994 -1.0928311 -0.22939157 0.075460725 -0.36635947 -0.44320583 -0.6706061 -0.75069654 -0.065015495 -0.49946856 -0.791149 0.77782613 -0.3409797 0.46416724 0.6945589 -0.24761014 0.09500681 0.2525882 0.7532926 0.38240337 -0.025861356 -0.5790725 0.3656168 -0.12172353 -0.8202132 0.054545164 -0.24566497 -0.59884584 -0.06161998 -0.061283287 -1.1073439 -0.39357013 0.7638292 -0.09969894 0.15241876 -0.6962858 -0.028120678 0.4142442 -0.21512155 -0.45684648 0.3300482
104 0.3787361 -0.3043398 0.2751276 -0.0005935894 -0.1351158 -0.010879604 0.12561941 -0.06602239 -0.11549912 0.17232777 -0.1728607 0.06253803 -0.2120199 0.77362645 0.3381039 0.30106646 -0.4696677 -0.9093698 -0.13455033 0.42902404 0.97538084 0.673244 -0.51422065 -1.06007 -0.16402388 0.10581004 0.31114557 0.27271527 -0.5590226 -0.22451238 0.39335513 -0.03594733 -0.42730233 -1.0243311 -0.66973215 -0.06443222 0.14646582 0.03947625 -0.7004329 -0.5022665 0.42572963 0.48961788 0.10719053 -0.09032447 -0.62273496 -0.4636878 -0.9576284 0.07246222 0.6765676 -0.84525645 -0.2586096 -0.63802594 -0.04374224 0.03448424 0.1828788 0.5761928 0.52155495 -0.5397156 -0.3472596 -0.7008901 -0.35865244 0.09839156 -0.21839273 -0.24087766
220 -0.035132475 0.15026492 0.061416566 -0.79215956 0.5378605 0.17204489 -0.34614936 -0.15473768 0.45616502 0.3397118 0.4165091 -0.20036833 -0.25097212 0.34298772 -0.026501445 1.1636885 0.016495062 -0.89376163 0.021917937 -0.24369243 -0.06611487 0.27599758 -0.12732469 -0.09071252 -0.40415236 0.5285495 -0.006571602 -0.20784184 -0.6913127 0.5791013 0.011651044 0.2027658 -0.77441144 -0.36159 0.11737661 0.4382424 0.08534559 0.5420472 -0.30868638 0.26749822 -0.056998987 0.55562556 -0.21513332 -0.25219697 -0.45020354 0.2608961 -0.42932978 -0.57764274 0.6364525 -0.052402083 0.016532926 -0.29776472 -0.2771827 -0.062221218 0.45559043 0.3563838 0.44222975 0.08096301 -0.09797292 -0.2688655 0.1277819 -0.427795 0.1755207 -0.43027124
39 0.072068155 0.27844322 -0.395526 -0.023167092 -0.06771423 0.5129984 0.98718077 0.83510065 0.5962876 0.81434995 -0.026984533 0.7955147 0.23455411 0.5197972 -0.9532026 0.47152698 -0.9008585 -0.798592 -0.36539087 -0.036295164 0.113794066 1.0132095 1.1638134 -0.6265232 -1.1064851 -0.119117245 -0.004241427 0.124667704 0.04824878 -0.27767646 -0.31284297 0.4309953 -1.0209529 -0.108527735 -0.14992495 -0.42034712 -0.15051487 0.6285578 -0.14953074 -0.08930044 -0.49624786 0.38762498 0.5426887 -0.2153935 -0.6734233 0.8144262 0.27491406 0.4641708 0.08279485 0.6587866 -0.2555051 -0.004840811 -0.023580836 -0.66895914 -0.1866905 0.7509532 0.3923098 -0.4240224 0.26164594 0.19164465 0.7017648 -0.6504045 0.21701899 -0.20176747
168 0.28404742 -0.17515315 0.30339968 -0.44874722 -0.59432864 0.43508804 0.5019088 0.24118513 -0.1810084 -0.1933047 0.045075007 -0.38569927 -0.043525603 0.6362969 0.0056852554 0.104780994 -0.14217086 -0.31048703 -0.41087115 0.054681215 0.100481674 0.54050756 0.022968065 -0.2241767 -0.5208899 0.14873302 0.40139142 0.637872 -0.44176796 0.2797456 -0.22718097 0.94999725 -0.37254795 -0.92616105 -0.06741394 0.10288312 0.43279123 0.3861847 -0.44688785 -0.10430918 0.6770319 0.11922088 0.3813359 0.14663516 -0.62967366 -0.37979233 -0.8676754 0.7778885 0.5757144 -0.5116708 -0.36581835 0.28161356 -0.124284156 -0.4192333 0.10406681 0.0873137 0.21156636 -0.24087533 -0.6546636 -0.46361455 0.15797925 -0.035937857 -0.19250676 -0.23615454
116 -0.0951882 0.5261886 -0.0059139137 -0.565724 -0.010176346 0.08270097 0.09314349 -0.17677672 -0.17124818 0.6327898 0.36615047 0.60476226 0.11941904 0.1675471 -0.19862501 0.4521365 -0.6157836 0.35484397 -0.09530436 0.82712173 -0.040424302 -0.11558319 0.36113858 -0.47968507 0.2754067 -0.41794518 0.49825096 0.27137986 -0.7578603 -0.06357014 -0.4710028 -0.09579328 0.2233658 0.0048486907 -0.3506248 -0.8550958 1.0942742 0.27609885 -0.549161 0.7020206 1.0199785 1.1318834 -0.19422266 -0.034388173 -0.6484686 0.22415967 0.66688603 0.16328077 0.21593612 -0.4649906 -0.36119705 0.27753937 0.24710271 -0.52901477 0.52860355 0.052011337 0.38308087 0.041814778 0.04807541 -0.120379485 0.71576065 -0.9418671 -0.40140957 0.049399763
0 -0.24021983 0.20039415 0.83115804 -0.4160588 0.21658535 0.010893361 0.18886694 0.40812603 -0.50421077 0.44757083 0.1626826 0.27370858 -0.20725927 0.13862884 0.32653436 0.7067934 -0.67998415 -0.51260966 -0.26842105 -0.071545556 0.20383838 0.3948327 -0.85619754 -0.44063404 -0.46924993 -0.6890696 -0.149162 0.22008751 -0.18014124 0.5824738 -0.3972394 -0.542809 -0.50376594 -0.4558461 0.19982015 0.20550092 -0.15517746 0.70183885 -0.43455207 -0.40106842 -0.44647363 0.44027674 -0.240641 -0.00068783615 -0.5674754 -0.30624136 0.032288536 0.878815 1.0042197 -0.95951694 -0.5980999 0.060508553 0.24908811 0.21077168 -0.44620386 -0.43882346 0.21811678 -0.5804856 0.25654367 -0.5998096 -0.105898544 -0.25758573 -0.113817185 0.015627395
264 -0.022739531 0.9441715 -0.48486847 -0.9862061 -0.6364893 0.36588243 -0.03511524 -0.036242414 0.3358219 0.53570837 0.6974535 0.62704945 -0.21262306 0.058452904 -0.71792006 0.3146649 -0.4303108 -0.5618587 0.24773636 0.57858187 0.32744995 0.39747232 0.26965344 0.2959785 -0.40845785 -0.2859179 -0.07690261 0.28490204 -0.88442457 -0.14296362 -0.24430062 -0.26542315 0.044840835 0.08718743 -0.19474056 -0.62238765 -0.04445948 0.3205722 -0.5782308 0.2608701 0.04644823 -0.3129867 1.023697 -0.34323937 0.24615285 0.05640977 -0.94339097 -0.19107273 0.7020853 -0.13917473 0.5803425 0.80919015 -0.4979822 -0.9414754 -0.2552018 0.21467058 -0.43114018 0.09573348 -0.61557114 -0.3727089 0.75855 -1.2885752 0.6460301 -0.523435
296 0.4616683 0.66585594 -0.27012345 0.04629966 0.69184995 0.61943746 0.3681293 -0.14251514 0.20020832 0.49479893 -0.12716733 0.24712172 0.07697246 0.54632825 0.17644538 0.13403338 0.46210852 -0.02708181 -0.84235513 -0.7518853 0.4804005 0.053328317 0.73342055 0.42741182 -0.3852536 -0.97798604 -0.6864909 0.6762498 -0.5019466 0.42133152 0.023935553 -0.01592758 -0.8709601 0.27095598 0.15929407 -0.2221211 -0.8481383 0.57149625 -0.19695829 0.7769673 0.6661478 0.8242068 0.113425024 0.12062938 -0.3418537 -0.2581065 -0.5543214 0.14409617 0.9098862 -0.5180516 -0.3192876 -0.18216534 0.21315134 -0.85434157 0.57402885 -0.10375066 0.26568007 0.054194473 -0.59310687 -0.7980083 -1.066851 -0.3921226 -0.14031744 -0.103195064
51 -0.17670582 -1.0594915 0.4082675 -0.73087615 -0.124330305 0.14893985 0.29462147 -0.044700842 -0.3465648 0.5277932 0.86081415 0.049442664 -0.37544924 -0.31127176 -0.8931162 0.7822912 -0.09447277 -0.15113132 -1.180609 0.036005206 -0.20448874 -0.31264532 0.20859845 -1.0536563 -0.8133907 -0.60005933 -0.060921945 -0.42083725 -1.2930357 0.17957641 -0.40765533 -0.47386155 -0.76841867 -0.85785073 0.40706307 -0.1950613 -0.04628475 0.3171664 -0.28839502 0.47689644 0.23948473 0.42169887 0.4291892 0.6535461 -0.2531895 0.60559076 -0.18106094 -0.5123152 0.28659725 0.25809005 -0.69262385 0.93136984 -0.42685044 -0.5660177 -0.5376286 0.30810118 -0.3673261 -0.09579221 -0.46975476 0.3378288 0.8710997 0.41885713 -0.10021543 0.6683551
221 0.08470732 0.030509757 0.16168904 -0.71538824 0.6435338 0.25167146 -0.19498073 -0.1611059 0.5764458 0.24329774 0.5653207 0.0767581 -0.5207429 0.31891108 0.27199885 1.0933138 0.0764769 -0.9010608 0.09284618 -0.41524723 0.10482474 0.39278492 -0.32210958 -0.22054887 -0.59892726 0.6192276 0.02588512 -0.21131264 -0.55257666 0.37727478 0.119212344 0.3260592 -0.7792933 -0.3183159 0.054059267 0.34388375 0.0061716293 0.7224581 -0.2944467 0.29390502 -0.09338137 0.5794508 -0.19645031 -0.30826005 -0.55542994 0.28446105 -0.38736695 -0.728368 0.9170696 0.011325157 0.2201313 -0.46177623 -0.23701882 -0.117066905 0.5537731 0.23628162 0.3775652 0.081029095 -0.06030212 0.021769552 0.32800198 -0.5554371 0.2684225 -0.41357753
272 0.4105938 -0.36202484 -0.10277064 -0.818713 -0.819673 0.35558417 0.6217966 0.142713 0.37129152 0.2578818 -0.1204879 0.19017975 0.4627103 0.09234856 0.084640086 0.0053335247 -0.3455543 0.37367377 -0.7590449 -0.07655127 -0.04806597 1.0147387 -0.4595122 -0.2508281 -0.7571358 -0.12742357 -0.2209084 1.3260028 0.1586637 0.69794357 -0.18774988 -0.22507651 -0.34942046 -0.031082936 -0.6239118 -1.0978378 0.40378433 0.19168109 -0.22127296 0.58223116 -0.34727928 0.5918765 0.3717284 0.25413266 -0.80363244 -0.08502726 0.057816975 0.2556369 0.7415975 -0.2565404 0.02010218 -0.42682123 -0.79915756 0.22967 0.036035728 -0.084203355 0.030264137 -0.23972331 -0.37690055 -0.024868464 -0.04782824 0.12222714 -0.29126933 0.5490165
242 -0.34228215 -0.4161924 0.49286452 -0.15156572 -0.6986373 0.4719599 -0.09846821 0.13367091 0.053429198 0.68371785 0.577532 -0.11177423 -0.3186694 0.6674035 0.56709087 -0.22995014 -0.28831166 -0.0974627 -0.29543853 -0.42036474 0.002282361 0.06824593 0.21720871 -0.39160258 0.05354794 -0.35835546 0.19401316 -0.13700233 -0.80823636 0.7117523 0.015543873 0.25548965 -0.62936294 -0.4187815 -0.31694216 -0.43702978 0.31067318 1.5075783 -0.1896009 0.103956446 -0.16313654 -0.4095429 0.14602153 0.04720771 -0.6936499 0.17199221 0.12774986 0.032504834 0.42221415 -1.1746483 -0.5055259 -0.38593778 -0.44103262 0.122851096 -0.07773564 -0.079630725 0.054605655 -0.046229884 -0.00931152 -0.10867832 -0.30032536 -0.62019444 0.51326483 -0.2719677
223 -0.3350541 -0.74421847 0.5499001 -0.38307005 -0.50097835 -0.42229626 -0.87234503 0.26076075 -0.19788261 0.8047871 0.7966207 0.4450273 -0.49991873 1.116809 0.8321016 0.07211912 -0.30730018 0.2762084 -0.9396724 -0.15723512 -0.19827022 -0.034444045 0.2924352 0.093786724 -0.46652937 -0.55712867 -0.33726162 -0.35899305 -0.8161481 1.4808465 -0.16051725 0.20106997 -0.21379603 -0.11666144 -0.5461543 -0.56426716 0.08876624 0.84519094 -0.029514676 -0.21487585 -0.32374576 0.09496864 -0.23070227 0.5626712 -0.8930299 0.33005798 0.47232985 -0.68527883 0.7895503 -0.8697278 -0.38490304 -0.7845075 0.16844358 0.1775044 -0.059306968 0.359384 0.28082812 -0.23320861 0.34114632 0.24676429 -0.18782565 -0.048438437 0.53111386 0.10974547
68 0.10290727 -0.12556979 -0.20079382 -0.2718057 -0.89670205 0.27532125 -0.58887357 0.18424109 0.21151784 -0.004010151 0.36757407 -0.1346279 -0.21758862 0.42628655 1.1824431 -0.13887213 0.1645702 0.33201182 -0.48646057 -0.5962294 0.40168115 0.14525712 0.18787733 0.10437352 -0.5409911 -0.15136784 -0.65278685 -0.53389245 -0.787426 0.5904144 -0.06972373 0.10576912 -0.55862457 -0.49573427 -0.2977112 -0.763614 0.54990524 1.1326735 -0.25800794 -0.068411686 -0.098022394 0.12195429 0.23128182 0.5431278 -0.7701811 0.73610485 0.16838549 -0.4029692 0.28146422 -0.7180951 -0.13769351 0.7681899 -0.8523974 0.05981836 0.24574116 0.103554994 -0.52323616 0.15718623 -0.20734055 -0.11912729 -0.20237947 -0.6046235 0.26119438 -0.75811464
