45 64
0 -0.05533504 0.049308117 -0.055788543 0.1366762 -0.11608174 0.06430749 0.12885988 0.2210929 -0.03576315 -0.24552342 0.09462387 -0.010332503 0.11946025 0.011932473 -0.102896 -0.23191437 0.0057881353 0.051564876 0.053192865 0.006795468 -0.15042621 0.040865563 0.18263134 -0.0711023 -0.011420895 0.13204549 0.11045361 0.083724305 -0.019600525 -0.0035439173 0.2321 0.16573259 -0.09364548 -0.08077193 0.0337434 0.1165325 -0.14368308 0.047780823 0.07079464 0.08634371 0.15972523 -0.13093874 0.050627973 0.11220468 -0.07146538 -0.06618282 0.0346792 -0.1744613 -0.11705471 0.06304218 0.095818505 0.13954139 0.17464192 0.09264841 -0.10153974 0.007837177 0.001380174 -0.070469804 0.2810314 -0.31472507 0.16452138 0.037497852 -0.14878309 0.16874368
44 0.26869214 0.1984832 0.25442696 0.79214376 0.18477659 0.31046563 0.79923964 0.9859653 -0.6471903 -2.1883945 1.0153246 -0.14788136 1.6000928 -0.18987846 -0.011892535 -1.6466291 -0.1602997 0.3525204 1.442403 2.730141 -1.2408897 0.57650864 1.1595327 -1.0589755 -1.1948943 1.8035537 0.014284334 -0.6421393 1.1983926 -0.113618605 2.144504 0.95662117 -2.8193636 -2.7169068 -0.14499082 1.3752733 -1.8850108 0.89685625 1.3983904 1.7274411 1.1288388 -1.3244377 0.12234914 1.3708004 -0.6018185 -2.227531 -0.7928697 -1.4631426 -0.70799243 2.7459126 0.11050423 1.7490824 1.3661501 2.5571513 -0.42919636 0.0069522588 1.1412244 -1.0724082 0.0011260357 -0.013018646 1.0611819 0.76811713 -0.29308948 0.07924369
29 -0.1332161 0.5120509 0.70939475 0.20563985 0.27400807 -0.6200421 1.4334364 1.5348628 -0.077685885 -0.5637044 2.08322 1.1465546 2.20109 -0.3639632 -1.0065632 -1.0820146 -0.5144739 1.5527133 1.566171 2.0682628 -0.13772109 1.0101268 1.947759 -2.105798 -0.59697723 1.6111758 -0.50173527 0.5159371 1.7821126 0.31616724 1.3971263 1.012986 -2.4030085 -1.9035468 -0.7053838 1.053321 -0.9093758 1.1861047 2.5225494 0.6477468 1.8597425 -0.4187182 -0.2406053 -0.29493502 -0.231679 -0.32862288 -0.6317931 -2.0912364 -1.3444109 1.7151992 0.7878272 1.5937543 0.43580216 2.116157 0.60080194 -0.7372733 0.986283 -1.4731607 0.79416114 -1.628044 1.4035069 -0.34017947 -1.0000656 0.059009854
34 0.13675663 -0.7497757 -0.5862256 1.1011968 0.60624015 -0.25375658 0.35059 1.9143424 -0.8535763 -1.1835548 0.6654106 0.06773211 2.1098633 0.9446391 -0.4972608 -1.0696532 -0.8716189 1.3244265 0.56492287 2.0218937 0.433144 0.9034773 1.9972302 -1.7120129 -0.12751864 2.166001 -1.0946636 -0.6729808 0.24167018 -0.79601336 1.2324518 -0.32423642 -0.900536 -2.770323 0.5417563 2.155673 -1.9064536 0.9612073 2.2260904 0.75778204 0.5390578 -1.3760691 -0.6198793 0.53735465 -0.89034885 -0.7437669 -0.46368486 -1.5687472 -1.1754062 2.2504835 0.20069991 2.7066522 1.900363 2.2016652 0.16241597 -0.29809037 0.53885305 -1.424103 1.1404793 -1.0176221 0.6286077 -0.42962465 -1.9947978 -0.17854741
13 -0.13514428 -0.20086674 -0.4097378 0.6229536 0.1760793 -0.41155618 2.0665886 1.6937337 -1.4662993 -1.0134782 2.148229 0.598748 0.75528765 0.6190176 0.06052139 -1.1406521 0.39970264 0.7612725 0.7512302 2.8448918 0.1755561 1.140172 1.1413648 -1.1058556 -0.6041167 0.5655074 -0.806621 -0.10968187 1.0468111 -0.7627216 1.2620509 0.20061958 -1.254709 -2.3932862 -0.71269643 1.889334 -0.45534873 0.23141171 2.2799926 1.9445925 1.7074367 -1.0255927 0.77497214 0.23021983 -1.4316933 -0.64448565 -0.78074944 -1.5355493 -0.18484452 2.0461147 0.34113902 2.5431993 1.78364 1.3607882 0.8637217 0.2692953 1.4431319 -1.9255537 1.4319967 -0.6828283 2.1519005 0.013360078 -1.5607595 0.8719389
12 0.3250776 0.18800253 1.3787528 0.5930643 -0.9908406 -0.953188 0.16207917 0.0811995 -0.20273243 -0.013807558 0.46168688 -0.40280664 -0.96578866 0.38905945 -0.33082265 0.4214677 0.40982822 -0.36289525 -1.1278311 -1.573958 0.8485196 0.39051473 0.29663783 0.47609824 0.6546768 -0.6346829 0.02067365 0.55168605 -0.7760733 -0.15843174 -1.4899112 -0.027231095 0.88834846 -0.45117816 -0.45624045 -1.2381912 1.5120633 -0.7417761 -0.60898894 -1.0213282 -1.8408527 1.2058223 -1.209816 -0.8131307 0.6044374 -0.18623175 -1.0618964 1.9004892 0.9958352 0.92311126 -1.3612018 -0.5152601 -1.5025303 0.034776643 1.1140678 -0.5657999 0.49508208 -0.22065419 -1.904927 2.3635485 -0.8977272 0.032054704 0.625473 -1.541371
18 0.31266317 0.21061443 1.4090579 0.5594992 -0.9774837 -0.99379987 0.1625831 0.07171049 -0.18382022 0.019170744 0.5129514 -0.36024767 -0.92955786 0.35537314 -0.36413205 0.4105975 0.38062546 -0.32745168 -1.1031883 -1.597118 0.8579903 0.40000674 0.3009889 0.4575983 0.6358443 -0.6340103 0.0030448446 0.59430075 -0.7452978 -0.1258423 -1.5133147 -0.013777903 0.87345225 -0.40571895 -0.46605277 -1.2685317 1.5383346 -0.757704 -0.58025753 -1.0199118 -1.8158821 1.2295917 -1.2238097 -0.84323853 0.6035228 -0.14304085 -1.0524919 1.87334 0.9876902 0.9039109 -1.3386693 -0.53995013 -1.5463879 0.023458242 1.1400489 -0.57704383 0.51228863 -0.24909675 -1.910921 2.3431153 -0.86510223 -0.004619856 0.63127476 -1.5469354
28 0.32935217 0.20526022 1.4048948 0.56400955 -0.96400964 -0.9750202 0.16442052 0.05037653 -0.2010768 -0.0118687805 0.48369157 -0.38719872 -0.9430824 0.35417944 -0.34439984 0.41548276 0.39362618 -0.3507932 -1.0782962 -1.5776807 0.8283923 0.39869353 0.2776991 0.4806177 0.62773603 -0.6402575 0.028459769 0.5857621 -0.7411394 -0.11583973 -1.4870483 -0.01766002 0.8567034 -0.43368357 -0.4673318 -1.2728039 1.5196135 -0.7630432 -0.6006516 -1.0215988 -1.8397095 1.2155198 -1.2180748 -0.8390846 0.6266553 -0.17795888 -1.0635291 1.8718102 1.0064863 0.9393184 -1.3631212 -0.5334525 -1.5544977 0.026878098 1.1271316 -0.58640116 0.4984204 -0.23285389 -1.9085279 2.3618898 -0.8918251 0.013111815 0.63695294 -1.5544447
41 0.31662133 0.17887971 1.3677624 0.55090845 -0.98077273 -0.9676962 0.16046333 0.05513148 -0.22858599 -0.0137930615 0.48690695 -0.38410592 -0.98512036 0.37990466 -0.3165023 0.39863166 0.41357106 -0.35719177 -1.0998824 -1.5828382 0.83144015 0.37169206 0.26969334 0.5060735 0.63872063 -0.64712805 0.02430105 0.5457871 -0.74053985 -0.16568285 -1.5080875 -0.026688462 0.8840873 -0.44742584 -0.46627846 -1.2325938 1.5249575 -0.76551324 -0.6125857 -1.0077827 -1.8215595 1.2158464 -1.2184956 -0.8100562 0.6090573 -0.19849195 -1.0810894 1.8808609 1.031904 0.9440463 -1.3608004 -0.5276603 -1.4998616 0.022752471 1.1289458 -0.5442868 0.5082666 -0.24852426 -1.9130186 2.3995974 -0.86537796 0.03892127 0.63646793 -1.5293336
33 0.30811262 0.21170592 1.3863877 0.5786397 -0.97166824 -0.97433424 0.16986187 0.059428792 -0.19632782 -0.025780827 0.46722704 -0.3740397 -0.9513499 0.38217074 -0.33322364 0.42039204 0.38308173 -0.35454077 -1.0876874 -1.5860674 0.83456457 0.37185642 0.29839057 0.46310362 0.65128803 -0.64439744 0.020256579 0.5692331 -0.7547013 -0.13906062 -1.4866182 -0.010768947 0.8769169 -0.43670395 -0.4502714 -1.2523841 1.5162377 -0.7369124 -0.62215686 -1.0229124 -1.8208978 1.2211108 -1.2250578 -0.83430463 0.6119954 -0.18197934 -1.0521836 1.8881199 0.9981703 0.94517237 -1.3719397 -0.53059465 -1.5230325 0.0245734 1.1326443 -0.5548778 0.5090498 -0.22894861 -1.9166237 2.360065 -0.89710015 0.01170368 0.62188554 -1.5659839
2 0.3293224 0.19523409 1.4004793 0.5403337 -0.96537954 -0.96967894 0.17267527 0.058597006 -0.20818855 0.01941976 0.50680083 -0.37594697 -0.9690218 0.38460886 -0.36133227 0.40933785 0.3992763 -0.3485812 -1.113063 -1.5926633 0.8632962 0.3912176 0.30476153 0.4644478 0.63727134 -0.6481984 -0.005929427 0.57414126 -0.74803054 -0.1496198 -1.5151434 -0.008145418 0.8864679 -0.4194456 -0.47069559 -1.2639742 1.5569698 -0.7464646 -0.5916694 -1.0099752 -1.8046601 1.2155896 -1.2256123 -0.84991956 0.600537 -0.15339306 -1.055235 1.8689045 0.9915881 0.9267202 -1.3636744 -0.51535463 -1.5357646 0.01187496 1.1530268 -0.56856436 0.5328007 -0.25743228 -1.8990211 2.357847 -0.8534676 -0.0011823551 0.633873 -1.5313413
11 0.31449956 0.2009945 1.382368 0.56520444 -0.9904258 -0.9722737 0.1637581 0.07172557 -0.19608228 -0.012778923 0.47368258 -0.38591856 -0.95351267 0.38358828 -0.34853944 0.39552313 0.4027918 -0.34516984 -1.1072971 -1.6046832 0.8275837 0.39468393 0.27890038 0.4920089 0.6295777 -0.6358088 0.0102809835 0.5698278 -0.76179636 -0.15829211 -1.5036781 -0.01901177 0.8857896 -0.43057105 -0.47043726 -1.244163 1.536475 -0.762065 -0.61844015 -1.0073216 -1.8182366 1.197445 -1.2253205 -0.823811 0.6157536 -0.17129244 -1.0755342 1.8850577 1.0185378 0.9201539 -1.3756539 -0.50522906 -1.5274822 0.020019064 1.1236492 -0.54945 0.5219409 -0.23761088 -1.9018909 2.3697994 -0.87647635 0.035127513 0.61165035 -1.5255177
23 0.32055306 0.19515878 1.3963434 0.56157166 -0.9639468 -0.9768998 0.14373921 0.07543136 -0.16890661 0.0030982972 0.47769824 -0.38909218 -0.9423192 0.3741873 -0.37232438 0.4235734 0.38350654 -0.3366569 -1.0918092 -1.5856755 0.86514413 0.38408798 0.3063889 0.45063847 0.6326858 -0.6181228 0.008098426 0.57099694 -0.7517303 -0.1418987 -1.499989 -0.023277644 0.8698505 -0.41236684 -0.45185712 -1.2435142 1.5294497 -0.73660177 -0.5863001 -1.049423 -1.8463976 1.2269235 -1.233743 -0.8487514 0.6355767 -0.16180882 -1.0477139 1.8801656 0.9733903 0.9254804 -1.3734775 -0.5322069 -1.5341475 0.04387887 1.1448096 -0.58989406 0.5062241 -0.22582749 -1.916231 2.332728 -0.89703906 -0.006689877 0.63782066 -1.5722778
7 0.32823566 0.2151449 1.3748771 0.58363765 -0.98945445 -0.955211 0.17891543 0.06723388 -0.21257722 -0.004276218 0.48171985 -0.39049372 -0.9652524 0.38687506 -0.34041935 0.4142613 0.39894375 -0.35892403 -1.1142753 -1.591943 0.84656143 0.38171595 0.29546678 0.47734663 0.646717 -0.65169466 0.025150698 0.5566538 -0.7735094 -0.15917888 -1.4892442 -0.023034126 0.8866839 -0.43514428 -0.46856132 -1.2373141 1.5149343 -0.7586813 -0.6279945 -1.0121607 -1.8264287 1.2214068 -1.2306951 -0.83357126 0.58816594 -0.18279737 -1.0829449 1.8891556 1.0063822 0.9274804 -1.3613609 -0.5114797 -1.504527 0.015969437 1.1335775 -0.5725897 0.5102373 -0.23330846 -1.9047103 2.364714 -0.87333786 0.02006726 0.6363484 -1.530936
36 0.32680708 0.22211187 1.4102318 0.5412757 -0.97649026 -0.9877778 0.1475279 0.0755765 -0.18369415 0.007038847 0.48110178 -0.36041716 -0.9418542 0.36020485 -0.3536741 0.41811982 0.38558105 -0.33321354 -1.0971329 -1.5795538 0.85506004 0.37317222 0.3077943 0.44712296 0.6405161 -0.6304682 0.0061575575 0.5754053 -0.72256297 -0.1352376 -1.5184051 0.0066056554 0.86968905 -0.43086424 -0.45835015 -1.2599738 1.5387937 -0.72838336 -0.6117674 -1.0291712 -1.8226215 1.2347381 -1.2297001 -0.8396235 0.62955093 -0.14682755 -1.0723429 1.8706846 0.98775214 0.9318429 -1.3651826 -0.52557856 -1.5399234 0.039954364 1.1417288 -0.5673403 0.5076723 -0.21991809 -1.9140235 2.340289 -0.8958814 0.0051881364 0.6456762 -1.5632141
9 0.3213018 0.21776207 1.4117429 0.55873805 -0.97654444 -0.9820416 0.14382851 0.052877426 -0.18226606 -0.00078868674 0.4822843 -0.36878467 -0.93839955 0.3584044 -0.35416734 0.40656778 0.38714984 -0.3410283 -1.0851581 -1.591885 0.8536653 0.38416582 0.3007183 0.4688919 0.6433859 -0.6360491 0.00065391 0.57329947 -0.73528093 -0.12589745 -1.5171355 0.0011151513 0.8811261 -0.4239101 -0.4476235 -1.2693408 1.5052544 -0.7315943 -0.58388656 -1.0307333 -1.824599 1.217746 -1.227022 -0.85290265 0.6076269 -0.17557067 -1.0750045 1.8873906 0.98058677 0.9263003 -1.3525679 -0.5313413 -1.523536 0.029026005 1.1391891 -0.5714107 0.5114056 -0.23676075 -1.9175559 2.3459904 -0.9014001 0.005643032 0.6442068 -1.5725133
27 0.31116238 0.18897437 1.369677 0.55836016 -0.9495098 -0.9788609 0.14845477 0.0849083 -0.18722373 0.041639086 0.48719767 -0.36591527 -0.9368998 0.3985826 -0.36320916 0.43173328 0.3794805 -0.32528272 -1.1291403 -1.5849849 0.8749126 0.38513476 0.30253497 0.45276573 0.64800817 -0.63614786 -0.020823868 0.5651985 -0.77587193 -0.15281789 -1.5187008 -0.044610906 0.91362983 -0.4369205 -0.4436054 -1.2314373 1.5161777 -0.75520825 -0.58011085 -1.0371646 -1.8555636 1.2234772 -1.2508923 -0.86512107 0.6076948 -0.13922279 -1.0567403 1.8945299 0.9848642 0.94053465 -1.3618331 -0.48612437 -1.5067242 0.0022606181 1.1446908 -0.56378573 0.5104303 -0.22983384 -1.880878 2.3581898 -0.9084157 -0.0044504534 0.5891677 -1.5541371
4 0.3310559 0.20867488 1.4012389 0.557598 -0.96575826 -0.9704032 0.14870213 0.07074 -0.1719027 0.013339596 0.48981023 -0.3817893 -0.91970587 0.38981995 -0.35422766 0.4329075 0.38666788 -0.3394036 -1.1019604 -1.5819417 0.8545914 0.38534012 0.30968046 0.45822102 0.64247096 -0.6389516 0.012810905 0.5644397 -0.74755657 -0.14769939 -1.5171713 -0.034373824 0.87982213 -0.44129506 -0.4638582 -1.268112 1.5135503 -0.7552746 -0.6012849 -1.0278306 -1.8223197 1.2235671 -1.2382976 -0.86084604 0.61659193 -0.14642848 -1.0641072 1.8767396 0.98796856 0.9262561 -1.372104 -0.5316511 -1.5474848 0.024044309 1.1448406 -0.56641567 0.50351363 -0.23938155 -1.8951447 2.3482108 -0.8943511 0.013665243 0.6275857 -1.5691019
30 0.33017033 0.2148196 1.3860334 0.5495418 -0.9636802 -0.9750029 0.15961438 0.06616685 -0.17817152 0.03112091 0.493776 -0.36476725 -0.94050276 0.38286155 -0.3499938 0.44012648 0.37006748 -0.31994805 -1.1003425 -1.5793316 0.86708325 0.4006927 0.309238 0.45872656 0.6373792 -0.6241497 0.0006105673 0.5754357 -0.73864543 -0.116208136 -1.523722 -0.018639442 0.8942069 -0.42205283 -0.48110777 -1.2712132 1.5491554 -0.7316426 -0.5808563 -1.0490371 -1.8380278 1.2362055 -1.225237 -0.86552525 0.6084423 -0.14592317 -1.073069 1.8700552 0.98025054 0.91492707 -1.3419237 -0.5421536 -1.5386345 0.03328364 1.1434648 -0.5699935 0.52310663 -0.24632901 -1.9178535 2.3295975 -0.900051 -0.005877376 0.61632186 -1.5747306
31 0.31862262 0.21477124 1.4017369 0.53855664 -0.9752316 -0.9805276 0.18934329 0.07756793 -0.19773743 0.039982796 0.49834365 -0.34446195 -0.9621801 0.38468793 -0.35644105 0.42901504 0.40853652 -0.3386572 -1.102843 -1.5876237 0.84620976 0.38385308 0.28952187 0.46485892 0.63389575 -0.6537074 0.0033426748 0.5817871 -0.7411805 -0.15232348 -1.4976195 -0.021569042 0.8710725 -0.41204932 -0.4791724 -1.2702539 1.5578657 -0.76563954 -0.586953 -1.0236158 -1.812711 1.2339231 -1.1951817 -0.8458207 0.5907681 -0.15302064 -1.0582417 1.8799193 0.99866915 0.92371756 -1.3429675 -0.52736574 -1.5528468 0.011878812 1.1654416 -0.5582252 0.52962977 -0.2541543 -1.9053868 2.3545914 -0.8558486 -0.004427947 0.6189329 -1.5415285
22 0.30539003 0.21968143 1.3947479 0.57075745 -0.9829808 -0.9811866 0.18464419 0.06278452 -0.1979199 0.02252598 0.49954456 -0.37037784 -0.93970335 0.36109254 -0.34774485 0.42326054 0.41036305 -0.32768053 -1.0893989 -1.5811039 0.8408959 0.40679345 0.2819344 0.45842096 0.6349897 -0.65807545 -0.0016224935 0.56950253 -0.7458897 -0.13728756 -1.5192153 -0.0031046523 0.8710852 -0.4300609 -0.46089604 -1.251788 1.5544181 -0.74519855 -0.59712815 -1.0405815 -1.8136317 1.2325683 -1.2135013 -0.8390251 0.626323 -0.13696173 -1.0839313 1.8711398 0.9982696 0.93616784 -1.3499237 -0.5199841 -1.5290469 0.009194379 1.1554428 -0.5819153 0.49938434 -0.22498484 -1.9057796 2.3469155 -0.88297576 0.002028052 0.63750446 -1.5459516
25 0.31761643 0.17645893 1.3771614 0.56006217 -0.9524496 -0.9971638 0.15778035 0.086594686 -0.20684834 0.038381815 0.48475057 -0.3619632 -0.9271184 0.3946381 -0.36565688 0.44586235 0.38723767 -0.30737802 -1.1084476 -1.5858407 0.90127957 0.39818838 0.32733807 0.4537694 0.66915643 -0.6373871 -0.018435676 0.5669319 -0.76914424 -0.1457749 -1.5151511 -0.02671425 0.9131138 -0.4245419 -0.45509106 -1.2517167 1.5396948 -0.7554874 -0.56625146 -1.0408117 -1.8359741 1.2324789 -1.2317437 -0.85253763 0.6084192 -0.14009707 -1.0534759 1.8926842 0.9902181 0.92529017 -1.3740162 -0.5137763 -1.5164006 0.01571039 1.1476647 -0.5669602 0.51607573 -0.23125052 -1.8975023 2.3331158 -0.88180465 -0.020412993 0.6095869 -1.5606945
17 0.33156365 0.20327184 1.4107376 0.5392635 -0.9915616 -0.98947304 0.17541589 0.08160019 -0.17687729 0.0054413876 0.5097265 -0.3705244 -0.93958515 0.37474665 -0.3509712 0.40805322 0.39272955 -0.33422956 -1.0899086 -1.5894705 0.8539115 0.38516355 0.27704826 0.461982 0.63599044 -0.664952 0.012315748 0.57311493 -0.7180197 -0.1197381 -1.5012368 0.01093891 0.884766 -0.42110804 -0.47126237 -1.256728 1.5497843 -0.7405575 -0.6059162 -1.0231149 -1.8080579 1.2324352 -1.2087421 -0.83533645 0.6187286 -0.17002483 -1.0728729 1.863971 1.012748 0.9334865 -1.356064 -0.5242082 -1.5499127 0.0066085956 1.1455084 -0.5613001 0.52344847 -0.2294158 -1.9063936 2.3410776 -0.8680598 0.010824633 0.62743485 -1.5543026
43 0.3255143 0.21783419 1.3943837 0.53608894 -0.96364576 -0.9751205 0.19095683 0.068727076 -0.20307447 0.020560764 0.51276493 -0.37471092 -0.95157176 0.36763915 -0.33698997 0.42614666 0.4033577 -0.35479873 -1.0807877 -1.5796705 0.8518989 0.40113536 0.2883058 0.45915225 0.63464427 -0.6510671 0.010280834 0.6027497 -0.7393716 -0.12377983 -1.5016724 0.010271795 0.86586934 -0.42165157 -0.49790478 -1.2617707 1.5458885 -0.74256194 -0.6060812 -1.0323879 -1.814557 1.2408959 -1.2192522 -0.857924 0.60011685 -0.14224093 -1.0637295 1.8824847 0.99844414 0.930177 -1.3664675 -0.5382919 -1.5527697 0.008609045 1.1430088 -0.5560572 0.5211222 -0.2535443 -1.913898 2.339629 -0.8596333 0.030823505 0.63010085 -1.5268947
19 0.3280249 0.21100932 1.3788307 0.5767686 -0.98103935 -0.9745778 0.18640858 0.08225464 -0.19631279 0.0075730034 0.49463233 -0.3884816 -0.97100246 0.35147533 -0.34720674 0.40031105 0.435706 -0.34570718 -1.1016501 -1.5733913 0.8429062 0.385868 0.29216826 0.49468666 0.6328182 -0.6764217 0.022423623 0.57911175 -0.72383595 -0.14582653 -1.5002308 0.018038902 0.87847316 -0.4100308 -0.49760878 -1.2637833 1.5556816 -0.7718873 -0.6018549 -0.9868337 -1.8075825 1.2169207 -1.1997558 -0.8380964 0.5894507 -0.17402464 -1.0742561 1.8902545 1.001429 0.93839043 -1.3719836 -0.54298466 -1.5167105 0.021727594 1.1299434 -0.55426824 0.5164737 -0.25502074 -1.9074728 2.3672073 -0.8455827 0.047237396 0.65225416 -1.518663
32 0.31897572 0.19275829 1.3917755 0.55998766 -0.9682754 -0.97087216 0.176635 0.087715544 -0.19774744 0.009412834 0.48998895 -0.38376436 -0.967627 0.39067486 -0.359462 0.4289543 0.38921827 -0.34313187 -1.1031691 -1.5952528 0.86327165 0.4029682 0.29430917 0.47588536 0.6387951 -0.6398487 0.023837045 0.5614639 -0.7483259 -0.1435887 -1.4979376 -0.020127235 0.8881241 -0.4371916 -0.4701003 -1.2437229 1.5453432 -0.7596026 -0.6106889 -1.0290028 -1.8145969 1.20565 -1.2217869 -0.82943 0.61367446 -0.15218548 -1.0773278 1.866737 1.0125681 0.9327312 -1.3665011 -0.53058 -1.5219874 0.018376455 1.1422752 -0.56048775 0.5068587 -0.2570785 -1.9035894 2.3454854 -0.85992324 0.021704048 0.6267828 -1.5297992
16 0.31831527 0.21201046 1.3716589 0.555867 -0.95933706 -0.9739855 0.20468971 0.075433984 -0.20755085 0.024319334 0.5131617 -0.37652153 -0.9611978 0.36751053 -0.3214177 0.42133093 0.4169961 -0.36136308 -1.1164025 -1.5797657 0.84890485 0.3969094 0.2643681 0.46633992 0.6266124 -0.68226105 0.015035367 0.5849901 -0.71612924 -0.13360694 -1.5232127 -0.008322039 0.8747628 -0.4267262 -0.5045048 -1.2503127 1.5674615 -0.75417936 -0.58823395 -1.017414 -1.7983891 1.2195371 -1.1857864 -0.84985876 0.5916314 -0.15431514 -1.0806189 1.8748672 1.0327764 0.9209558 -1.3510661 -0.5369767 -1.5283077 0.000762574 1.1714404 -0.57387304 0.5402673 -0.25646138 -1.9137417 2.358558 -0.86231273 0.0070995223 0.6257841 -1.5485681
35 0.3203163 0.2074682 1.3923502 0.55013347 -0.973942 -0.98646474 0.169519 0.07833834 -0.19458124 0.04465824 0.49856877 -0.36563084 -0.9208413 0.35376206 -0.3474913 0.43762654 0.3869659 -0.33428994 -1.0991321 -1.5968767 0.8628761 0.39299676 0.31057382 0.4659987 0.65690976 -0.64555585 0.019996705 0.5795923 -0.7236903 -0.12547904 -1.512527 -0.009685808 0.8735272 -0.42417383 -0.4846669 -1.2607759 1.5469433 -0.74006844 -0.588704 -1.0372951 -1.8068479 1.2187153 -1.2277182 -0.8685037 0.6266211 -0.124899834 -1.0509648 1.8819101 0.9969996 0.92696327 -1.3437555 -0.51911485 -1.5534242 0.03505642 1.1520774 -0.5842936 0.5194526 -0.22562775 -1.8960471 2.345974 -0.8723439 6.115595e-05 0.64416033 -1.5532658
20 0.3366791 0.19607304 1.3978527 0.58090985 -0.9751232 -0.96759856 0.15219587 0.058229916 -0.17419389 -0.021700025 0.45604846 -0.38414407 -0.92668027 0.36943933 -0.34497076 0.4264801 0.3745546 -0.35327572 -1.1080279 -1.5974463 0.84478194 0.399446 0.3072776 0.46607083 0.6430943 -0.61252636 0.029598033 0.5698585 -0.74477273 -0.15179963 -1.5040585 -0.025636245 0.8893303 -0.44104543 -0.46691084 -1.2412808 1.5217699 -0.74962115 -0.5966949 -1.0311173 -1.847811 1.209983 -1.2362899 -0.8278286 0.61983484 -0.16804108 -1.0549926 1.8706979 0.98568195 0.93396753 -1.3575681 -0.51308864 -1.5319694 0.038837727 1.111796 -0.5724741 0.51931024 -0.23276761 -1.9255899 2.3501604 -0.9036977 0.016941773 0.6378579 -1.5475483
26 0.32138184 0.1986881 1.401021 0.5680462 -0.9647477 -0.95615995 0.15228797 0.082726516 -0.19386338 0.02381197 0.47027072 -0.37056467 -0.93306774 0.3869456 -0.34489185 0.41545555 0.38715026 -0.33061016 -1.0909795 -1.6073278 0.8500637 0.3953262 0.29053962 0.44765192 0.6382043 -0.6222048 0.0041151107 0.57402825 -0.74457693 -0.14186294 -1.5058253 -0.021007644 0.8889971 -0.44536725 -0.43748468 -1.2608031 1.5178564 -0.7268526 -0.6007377 -1.0399477 -1.8423516 1.2111695 -1.2402706 -0.83316815 0.6285462 -0.15342157 -1.0594567 1.89377 0.9692792 0.9439381 -1.3536223 -0.5301516 -1.527427 0.02430865 1.1270833 -0.57481563 0.5099078 -0.22642627 -1.9106214 2.3555284 -0.8948446 -0.0016966673 0.6144764 -1.5750029
24 0.318531 0.22036776 1.3840358 0.5615356 -0.9933059 -0.9612507 0.15855567 0.058001254 -0.18016808 0.011422536 0.47765258 -0.38819048 -0.93572277 0.36905104 -0.36994636 0.4230662 0.38041747 -0.34981132 -1.0997885 -1.6026007 0.84099275 0.40194917 0.30533028 0.4771861 0.6376826 -0.63445824 0.017912349 0.5617089 -0.73969215 -0.12962869 -1.5126469 -0.012279531 0.85862213 -0.43706685 -0.45889646 -1.247585 1.5284721 -0.7422841 -0.59503675 -1.0309498 -1.8312434 1.2050321 -1.230422 -0.8350669 0.61823595 -0.15843338 -1.077538 1.874513 0.9796413 0.9295599 -1.3688918 -0.52684927 -1.5302838 0.021616565 1.119969 -0.5738707 0.5176942 -0.22392184 -1.916697 2.3449883 -0.8960139 0.018268986 0.6386188 -1.5534351
38 0.32787964 0.20315775 1.386494 0.5560084 -0.984702 -0.989164 0.17638889 0.08342414 -0.21040264 0.023654183 0.480625 -0.38630146 -0.96512705 0.39134473 -0.34434673 0.42919874 0.40393442 -0.33732057 -1.1092554 -1.5809191 0.8587414 0.39912128 0.29509264 0.46731892 0.65575963 -0.65238404 0.01786843 0.5797084 -0.73959196 -0.13592114 -1.5035682 -0.0224991 0.88685554 -0.41686532 -0.47944343 -1.2543883 1.5369433 -0.7501811 -0.61383766 -1.0122669 -1.824532 1.2127188 -1.2161928 -0.8444196 0.5948508 -0.16002199 -1.0668986 1.8667471 0.9980097 0.93099177 -1.3664609 -0.5160005 -1.525101 0.029039256 1.1427505 -0.5685779 0.5163378 -0.24524567 -1.9063 2.355487 -0.8768334 -0.0030887844 0.61000896 -1.5508271
8 0.32631746 0.21000016 1.3887229 0.55682844 -0.9757663 -0.97270435 0.16000357 0.0870579 -0.19417498 -0.0062392433 0.47039685 -0.38871375 -0.95139587 0.39425668 -0.33606443 0.39761558 0.3830361 -0.33356303 -1.1074431 -1.5912418 0.8559359 0.3797661 0.30057138 0.46970925 0.62928313 -0.64438796 0.023356417 0.58290654 -0.74774224 -0.1373327 -1.5069946 -0.019041827 0.88001484 -0.43161282 -0.46646142 -1.2524363 1.5136056 -0.73853546 -0.59893745 -1.0211214 -1.8337904 1.2233826 -1.2309166 -0.82449514 0.60446393 -0.15322348 -1.0554409 1.8765194 1.0014733 0.933281 -1.3791305 -0.51915675 -1.5156014 0.031346776 1.1469901 -0.55215466 0.49968484 -0.22872205 -1.9084208 2.3530443 -0.878446 0.027909508 0.63011104 -1.5397856
1 0.3428233 0.20589861 1.3768457 0.55233175 -0.9638692 -0.96432513 0.14813934 0.060682904 -0.1979205 -0.02384923 0.46342418 -0.39210716 -0.95225614 0.38010713 -0.34278467 0.41479924 0.41118306 -0.35819733 -1.0893134 -1.5898596 0.83550847 0.36730996 0.2836609 0.46840662 0.6245668 -0.6545739 0.025006123 0.5502353 -0.75632 -0.13688256 -1.4864662 -0.010302967 0.85618496 -0.44306615 -0.46017632 -1.2640758 1.500155 -0.7527433 -0.6122665 -1.0016358 -1.8503911 1.212956 -1.2266309 -0.82658374 0.6112015 -0.19050184 -1.0774412 1.8792307 0.99952734 0.952179 -1.3826474 -0.5196924 -1.5239055 0.030005982 1.1302259 -0.55344677 0.50646347 -0.21893498 -1.9192301 2.3871598 -0.8896622 0.025836911 0.6509374 -1.5605192
5 0.325054 0.19676325 1.3939832 0.5500569 -0.951812 -1.0022533 0.15448664 0.06855625 -0.18849382 0.06145845 0.48656324 -0.3565128 -0.92738885 0.39004865 -0.34905875 0.43643636 0.3673513 -0.31120872 -1.110077 -1.5953916 0.88213634 0.40990382 0.30220595 0.44031438 0.6559707 -0.62132394 -0.015620447 0.59065205 -0.7372267 -0.14594041 -1.5294905 -0.036035 0.89894396 -0.43077835 -0.47263348 -1.2636101 1.5454438 -0.7291589 -0.5597354 -1.0506192 -1.8390645 1.2367231 -1.2323927 -0.87296647 0.62542665 -0.10534189 -1.0725193 1.8817282 0.985668 0.92224663 -1.3649137 -0.5105187 -1.5323716 0.019742792 1.1467484 -0.5798772 0.4862034 -0.24540871 -1.8995643 2.3447773 -0.8866843 -0.031827785 0.59421706 -1.555202
39 0.32965672 0.21772285 1.3902066 0.5490379 -0.9874966 -0.97052664 0.16950369 0.06293189 -0.18381733 -0.011072318 0.50356257 -0.38017446 -0.95134103 0.36688736 -0.3499459 0.42087874 0.3885252 -0.35566851 -1.0815693 -1.5902003 0.8108953 0.38104987 0.29593 0.47484806 0.63913053 -0.63377345 0.022452775 0.5763499 -0.73457384 -0.11343996 -1.4995844 0.010843676 0.85162485 -0.42938957 -0.4849126 -1.2589555 1.5110782 -0.7440565 -0.6055092 -1.0122316 -1.8268578 1.2275474 -1.2075344 -0.84067434 0.6171028 -0.16576962 -1.0584081 1.8773489 1.0015175 0.93230975 -1.3545058 -0.54388005 -1.557297 0.03483795 1.1272365 -0.5894479 0.5115736 -0.22875094 -1.9172802 2.3626738 -0.8847129 0.01582573 0.6614488 -1.5622815
40 0.31031722 0.18190059 1.3492259 0.5730897 -0.96791226 -0.9689763 0.146416 0.07348508 -0.21461447 0.0018628573 0.47944644 -0.38443354 -0.9480679 0.38464552 -0.31842354 0.4125374 0.4121436 -0.3484224 -1.1130662 -1.5988551 0.8419562 0.4008246 0.27996823 0.48490992 0.6550389 -0.6464755 0.019873697 0.551185 -0.7843949 -0.17145903 -1.5074494 -0.05029623 0.92227566 -0.43391728 -0.4656387 -1.2222233 1.5342056 -0.7517801 -0.59926647 -1.0273308 -1.8418014 1.1870983 -1.2246792 -0.8204263 0.592401 -0.16701066 -1.0588266 1.894544 1.0150563 0.9499393 -1.382105 -0.49170995 -1.4910809 0.03036118 1.1363786 -0.561535 0.50213915 -0.23786312 -1.8989964 2.3828032 -0.8843806 0.023350142 0.61939204 -1.5596145
3 0.32568762 0.22354917 1.3878397 0.5650921 -0.9894712 -0.98812324 0.1879848 0.073263474 -0.17995927 0.020611543 0.49146673 -0.36170858 -0.95414436 0.3732267 -0.35455814 0.42656407 0.39374912 -0.33373496 -1.1151392 -1.5847079 0.8417699 0.4029702 0.30465737 0.45129126 0.638313 -0.6619431 0.005222062 0.5962215 -0.72952104 -0.1330286 -1.5077087 0.0026753903 0.8845952 -0.42033282 -0.46634 -1.2686028 1.5240178 -0.7670211 -0.5845413 -1.0244285 -1.8281611 1.2123111 -1.223647 -0.842256 0.6097648 -0.14510587 -1.0709013 1.8861643 0.9941241 0.93572015 -1.3735855 -0.53314084 -1.5498246 0.012545954 1.1283259 -0.56869227 0.4999607 -0.25035864 -1.8826176 2.3211184 -0.8724634 -0.0020494573 0.635242 -1.5325732
10 0.31907132 0.22331056 1.4020848 0.54046726 -0.9625148 -0.99462074 0.19416249 0.07393145 -0.19455977 0.017435972 0.5161564 -0.37046993 -0.9409564 0.35928732 -0.3387267 0.42119145 0.41407245 -0.34321284 -1.0876018 -1.5766338 0.85622185 0.39393505 0.2985349 0.47686538 0.65352273 -0.64415777 0.025453463 0.5992974 -0.720117 -0.132614 -1.5107164 -0.0050916723 0.88278645 -0.41312045 -0.4948404 -1.2793568 1.5445228 -0.7394777 -0.60324174 -1.0373379 -1.8048692 1.2316111 -1.2135338 -0.8456623 0.61789674 -0.13717148 -1.0640603 1.8785783 1.0117441 0.9228987 -1.3636011 -0.52147114 -1.532421 0.014892707 1.1398047 -0.5671656 0.5245396 -0.22836474 -1.8973033 2.3278165 -0.8690445 0.0112507455 0.6370139 -1.5571368
37 0.3312766 0.20667854 1.4164021 0.55438435 -0.9672485 -0.9729672 0.16066821 0.087529674 -0.1684593 0.016466387 0.4780344 -0.35337403 -0.9047829 0.3745363 -0.39589912 0.4263886 0.37086183 -0.312666 -1.1074492 -1.6125509 0.86732686 0.40473777 0.31877753 0.4233206 0.6451029 -0.61610985 -0.0011267847 0.57955396 -0.74505675 -0.12150524 -1.5216117 -0.00953942 0.88175064 -0.411076 -0.45715618 -1.2668158 1.5080423 -0.74183303 -0.5903015 -1.0525893 -1.8215866 1.2286558 -1.2564162 -0.86945456 0.63080376 -0.15006323 -1.0537887 1.8655623 0.95630425 0.9116645 -1.3563112 -0.541211 -1.5556386 0.030608634 1.1319067 -0.604373 0.48552552 -0.23826514 -1.8979994 2.3092923 -0.909888 -0.008570748 0.60333943 -1.5719963
15 0.32568726 0.20574056 1.4012257 0.5581259 -0.95555025 -0.9762833 0.18264918 0.06095131 -0.19190243 0.022158729 0.4842155 -0.36918464 -0.9432366 0.3661184 -0.36335665 0.42186868 0.37001964 -0.3135084 -1.0934507 -1.5918072 0.8746043 0.40539017 0.30541798 0.4527433 0.64063543 -0.6367029 0.012466635 0.60330856 -0.7403734 -0.12511414 -1.5230918 -0.017348902 0.899487 -0.42109492 -0.47440135 -1.2763257 1.5231838 -0.7279516 -0.5960003 -1.0385109 -1.829552 1.2284863 -1.2479072 -0.84880227 0.630382 -0.12640019 -1.0498854 1.8694749 0.96685976 0.9305892 -1.3605268 -0.5167062 -1.5381196 0.018117886 1.1352576 -0.5875786 0.5155935 -0.24961819 -1.8977363 2.3167894 -0.8702969 -0.008170789 0.63565683 -1.566063
6 0.3016584 0.19933417 1.3849578 0.5603895 -0.97963756 -0.96393955 0.19736573 0.077473186 -0.19756487 0.025600763 0.5069654 -0.35339105 -0.97767824 0.37724504 -0.3454793 0.41675892 0.42191178 -0.34911036 -1.1011026 -1.5770789 0.8490982 0.38949353 0.29592398 0.4595653 0.6473366 -0.6642582 0.017688736 0.58776647 -0.73248607 -0.13619424 -1.5102502 -0.00088791474 0.88036156 -0.42873952 -0.49948984 -1.2736104 1.5512613 -0.76851845 -0.59861964 -1.0176525 -1.8218043 1.2262194 -1.198248 -0.8481697 0.5918138 -0.15098102 -1.0717643 1.870194 1.0048778 0.9281569 -1.3651276 -0.53859067 -1.5194118 0.017249845 1.1442926 -0.55387276 0.52492183 -0.23490961 -1.9023925 2.3659596 -0.8598906 0.0071027908 0.623716 -1.5226694
14 0.3170702 0.20719233 1.3993137 0.55426717 -0.9784515 -0.9909255 0.15785562 0.07110275 -0.18235417 0.022420531 0.49720356 -0.36323953 -0.93330187 0.38852984 -0.36369607 0.42367107 0.40061945 -0.32730818 -1.0925542 -1.6091733 0.87013745 0.399541 0.31337398 0.4391157 0.64839166 -0.6336466 -0.0024436011 0.5694054 -0.7365352 -0.14935558 -1.5171998 -0.0056408886 0.88273114 -0.409334 -0.46369722 -1.244807 1.5246646 -0.75429374 -0.606023 -1.0378926 -1.8298916 1.2156954 -1.2177852 -0.8591271 0.601978 -0.15188241 -1.0710016 1.8581114 0.9826502 0.93606246 -1.3427875 -0.5273589 -1.5425199 0.015878823 1.1251783 -0.58531475 0.49588838 -0.23520254 -1.9009783 2.3304782 -0.8771423 0.009940448 0.61015904 -1.564726
42 0.33441505 0.18311396 1.3864077 0.56371546 -0.9492234 -0.9688815 0.14808118 0.07375144 -0.20978048 -0.0014792877 0.4764793 -0.3880001 -0.957501 0.38326272 -0.35572734 0.42594218 0.38946697 -0.34899282 -1.104882 -1.5781449 0.8694513 0.37523454 0.27983442 0.45624542 0.62882185 -0.64685893 0.0006864385 0.54546 -0.7630642 -0.15192942 -1.5020521 -0.029605957 0.9106263 -0.44687828 -0.4661576 -1.2509824 1.5396163 -0.7506834 -0.6027334 -1.0242409 -1.8372761 1.1999365 -1.2231178 -0.8262989 0.61552113 -0.15481347 -1.078926 1.8827442 1.0136206 0.9336315 -1.3853956 -0.5106519 -1.5314662 0.03211545 1.1443374 -0.5743796 0.51209366 -0.22503303 -1.92031 2.3675263 -0.87930226 0.024453664 0.61131907 -1.5467225
21 0.34015056 0.18439206 1.3775153 0.5576776 -0.95017225 -0.9764217 0.1693946 0.08430295 -0.20074941 0.0032451858 0.47598964 -0.3798262 -0.95350015 0.39768243 -0.32324824 0.43326777 0.41111997 -0.35665026 -1.1222795 -1.5773159 0.8720734 0.39072496 0.2780111 0.46568957 0.6313861 -0.63199157 0.002917309 0.5471012 -0.7505856 -0.14836442 -1.52288 -0.04570373 0.9068278 -0.42440775 -0.47823423 -1.2436392 1.5226742 -0.75871396 -0.59334666 -1.0289533 -1.843122 1.2147996 -1.2330078 -0.827258 0.60630196 -0.17020983 -1.0719191 1.893703 0.99279255 0.9253137 -1.3843114 -0.5176321 -1.5024124 0.028611768 1.1489778 -0.57705474 0.5217213 -0.2340106 -1.9070458 2.3560965 -0.88808835 0.0068809697 0.60543066 -1.5501086
